{"learner":{"attributes":{"scikit_learn":"{\"_estimator_type\": \"ranker\"}"},"feature_names":[],"feature_types":[],"gradient_booster":{"model":{"gbtree_model_param":{"num_parallel_tree":"1","num_trees":"100"},"iteration_indptr":[0,1,2,3,4,5,6,7,8,9,10,11,12,13,14,15,16,17,18,19,20,21,22,23,24,25,26,27,28,29,30,31,32,33,34,35,36,37,38,39,40,41,42,43,44,45,46,47,48,49,50,51,52,53,54,55,56,57,58,59,60,61,62,63,64,65,66,67,68,69,70,71,72,73,74,75,76,77,78,79,80,81,82,83,84,85,86,87,88,89,90,91,92,93,94,95,96,97,98,99,100],"tree_info":[0,0,0,0,0,0,0,0,0,0,0,0,0,0,0,0,0,0,0,0,0,0,0,0,0,0,0,0,0,0,0,0,0,0,0,0,0,0,0,0,0,0,0,0,0,0,0,0,0,0,0,0,0,0,0,0,0,0,0,0,0,0,0,0,0,0,0,0,0,0,0,0,0,0,0,0,0,0,0,0,0,0,0,0,0,0,0,0,0,0,0,0,0,0,0,0,0,0,0,0],"trees":[{"base_weights":[-1.9523057E-8,-8.014585E-2,2.0689365E-1,-1.7039214E-1,1.0671571E-2,1.2534466E-1,-3.9856735E-1,-3.5179887E-8,5.327023E-1,-1.9942917E-1,4.1084636E-2,-2.9806635E-1,1.025149E-1,1.9289948E-1,3.9986804E-2,-1.1124321E-1,-2.166087E-3,6.927388E-2,-6.5005315E-3],"categories":[],"categories_nodes":[],"categories_segments":[],"categories_sizes":[],"default_left":[0,0,0,0,0,0,0,0,0,0,0,0,0,0,0,0,0,0,0],"id":0,"left_children":[1,3,-1,-1,5,7,9,11,13,-1,-1,15,17,-1,-1,-1,-1,-1,-1],"loss_changes":[1.9987468E0,1.4413512E0,0E0,0E0,1.3777512E0,1.1673201E0,1.0079597E0,5.95307E-1,1.5127504E-1,0E0,0E0,1.0280982E-1,2.3614872E-1,0E0,0E0,0E0,0E0,0E0,0E0],"parents":[2147483647,0,0,1,1,4,4,5,5,6,6,7,7,8,8,11,11,12,12],"right_children":[2,4,-1,-1,6,8,10,12,14,-1,-1,16,18,-1,-1,-1,-1,-1,-1],"split_conditions":[8.656216E-1,2.4E1,2.0689365E-1,-1.7039214E-1,4.8E1,8.444196E-1,8.517033E-1,-4.0084636E-1,-3.4192708E-1,-1.9942917E-1,4.1084636E-2,6.272511E-1,9.863729E-1,1.9289948E-1,3.9986804E-2,-1.1124321E-1,-2.166087E-3,6.927388E-2,-6.5005315E-3],"split_indices":[2,0,0,0,0,2,2,5,5,0,0,9,10,0,0,0,0,0,0],"split_type":[0,0,0,0,0,0,0,0,0,0,0,0,0,0,0,0,0,0,0],"sum_hessian":[3.4161877E1,3.1396929E1,2.764947E0,4.103086E0,2.7293842E1,2.186168E1,5.432163E0,1.7482332E1,4.379347E0,3.4672809E0,1.9648817E0,3.9858303E0,1.3496503E1,2.9538085E0,1.425538E0,2.9684458E0,1.0173845E0,6.2130923E0,7.2834105E0],"tree_param":{"num_deleted":"0","num_feature":"14","num_nodes":"19","size_leaf_vector":"1"}},{"base_weights":[3.3739838E-8,5.0879076E-2,-1.8094097E-1,1.6396071E-1,-9.887051E-2,-7.320365E-2,2.1333838E-1,-1.6155276E-1,1.6866226E-1,2.495744E-1,-1.1653339E-1,-2.4300364E-1,3.4043033E-2,2.5504747E-1,-1.4897533E-2,2.9230732E-1,-1.176115E-2,-8.023383E-2,3.2374628E-2,6.912604E-2,-3.3622274E-1,1.281474E-1,-5.6811426E-2,9.365509E-2,1.641534E-2,1.06110305E-1,3.345187E-3,2.2265855E-2,-3.754926E-2,-4.1364253E-2,9.777545E-2,-1.0657805E-1,-2.8408064E-2,-2.0620694E-2,6.0528643E-2],"categories":[],"categories_nodes":[],"categories_segments":[],"categories_sizes":[],"default_left":[0,0,0,0,0,0,0,0,0,0,0,0,1,0,0,0,0,0,0,0,0,0,0,0,0,0,0,0,0,0,0,0,0,0,0],"id":1,"left_children":[1,3,-1,5,7,-1,9,11,13,15,17,19,21,23,-1,25,27,-1,-1,29,31,33,-1,-1,-1,-1,-1,-1,-1,-1,-1,-1,-1,-1,-1],"loss_changes":[1.6844329E0,8.734153E-1,0E0,6.406365E-1,4.0293658E-1,0E0,3.4699917E-1,3.0557224E-1,1.0209471E-1,2.746153E-1,1.4111838E-1,4.101587E-1,1.5805444E-1,2.3671448E-2,0E0,3.5696363E-1,5.193729E-2,0E0,0E0,2.5159281E-1,1.4226079E-2,8.740679E-2,0E0,0E0,0E0,0E0,0E0,0E0,0E0,0E0,0E0,0E0,0E0,0E0,0E0],"parents":[2147483647,0,0,1,1,3,3,4,4,6,6,7,7,8,8,9,9,10,10,11,11,12,12,13,13,15,15,16,16,19,19,20,20,21,21],"right_children":[2,4,-1,6,8,-1,10,12,14,16,18,20,22,24,-1,26,28,-1,-1,30,32,34,-1,-1,-1,-1,-1,-1,-1,-1,-1,-1,-1,-1,-1],"split_conditions":[4.8E1,-1.6666667E-1,-1.8094097E-1,-4E-1,3.125E-1,-7.320365E-2,6.019437E0,1E0,5.413555E-1,9.978797E-1,6.77151E0,3.3135283E-1,8.264479E0,9.883107E-1,-1.4897533E-2,1.5E-1,-3.846154E-1,-8.023383E-2,3.2374628E-2,3.2729027E-1,7.5E-1,3.8438818E0,-5.6811426E-2,9.365509E-2,1.641534E-2,1.06110305E-1,3.345187E-3,2.2265855E-2,-3.754926E-2,-4.1364253E-2,9.777545E-2,-1.0657805E-1,-2.8408064E-2,-2.0620694E-2,6.0528643E-2],"split_indices":[0,1,0,8,12,0,4,6,9,10,4,9,4,10,0,11,1,0,0,9,7,4,0,0,0,0,0,0,0,0,0,0,0,0,0],"split_type":[0,0,0,0,0,0,0,0,0,0,0,0,0,0,0,0,0,0,0,0,0,0,0,0,0,0,0,0,0,0,0,0,0,0,0],"sum_hessian":[5.2890747E1,4.962053E1,3.2702172E0,2.821751E1,2.140302E1,2.6209223E0,2.5596588E1,1.7661186E1,3.7418332E0,2.3282457E1,2.3141308E0,1.2297733E1,5.3634534E0,2.5604784E0,1.1813546E0,1.990855E1,3.3739085E0,1.2691941E0,1.0449367E0,2.88758E0,9.410153E0,4.0739007E0,1.2895529E0,1.5578218E0,1.0026568E0,1.6128658E1,3.779892E0,2.115494E0,1.2584145E0,1.8551551E0,1.0324247E0,8.286158E0,1.123996E0,1.1267309E0,2.9471695E0],"tree_param":{"num_deleted":"0","num_feature":"14","num_nodes":"35","size_leaf_vector":"1"}},{"base_weights":[2.4134026E-8,7.067908E-2,-1.8015286E-1,-8.215015E-2,2.4126714E-1,-2.9018688E-1,6.807112E-2,3.0290487E-1,-6.828033E-2,1.0176008E-2,-3.325021E-1,1.21001616E-1,-5.697834E-2,9.888514E-3,3.1787935E-1,-7.025117E-2,2.8448673E-2,-1.07274435E-1,-3.1139078E-2,-2.4252841E-1,6.01675E-2,1.3197127E-1,1.0171434E-1,-8.9514636E-2,-1.1663404E-2,3.9475054E-2,-1.45396255E-2,7.2753906E-2,-9.5059415E-3],"categories":[],"categories_nodes":[],"categories_segments":[],"categories_sizes":[],"default_left":[0,0,0,0,0,0,0,0,0,0,0,0,0,0,0,0,0,0,0,0,0,0,0,0,0,0,0,0,0],"id":2,"left_children":[1,3,-1,5,7,9,11,13,15,-1,17,-1,19,-1,21,-1,-1,-1,-1,23,25,27,-1,-1,-1,-1,-1,-1,-1],"loss_changes":[2.14466E0,1.198452E0,0E0,7.882792E-1,4.3313444E-1,1.5530306E-1,6.55634E-1,6.313777E-2,1.4141726E-1,0E0,1.6693473E-2,0E0,2.7253717E-1,0E0,2.2702575E-2,0E0,0E0,0E0,0E0,4.289964E-2,6.902853E-2,6.900039E-2,0E0,0E0,0E0,0E0,0E0,0E0,0E0],"parents":[2147483647,0,0,1,1,3,3,4,4,5,5,6,6,7,7,8,8,10,10,12,12,14,14,19,19,20,20,21,21],"right_children":[2,4,-1,6,8,10,12,14,16,-1,18,-1,20,-1,22,-1,-1,-1,-1,24,26,28,-1,-1,-1,-1,-1,-1,-1],"split_conditions":[4.8E1,-1.7604166E-1,-1.8015286E-1,5.2694327E-1,5E-2,-5E-1,5.29184E-1,5.5555556E-2,1E0,1.0176008E-2,7.5E-1,1.21001616E-1,1E0,9.888514E-3,5E-2,-7.025117E-2,2.8448673E-2,-1.07274435E-1,-3.1139078E-2,3.125E-1,5E-2,9.6406907E-1,1.0171434E-1,-8.9514636E-2,-1.1663404E-2,3.9475054E-2,-1.45396255E-2,7.2753906E-2,-9.5059415E-3],"split_indices":[0,5,0,9,11,1,9,13,6,0,7,0,6,0,3,0,0,0,0,12,3,10,0,0,0,0,0,0,0],"split_type":[0,0,0,0,0,0,0,0,0,0,0,0,0,0,0,0,0,0,0,0,0,0,0,0,0,0,0,0,0],"sum_hessian":[4.8529823E1,4.4208817E1,4.3210087E0,2.359161E1,2.0617207E1,9.50152E0,1.4090089E1,1.7211481E1,3.4057262E0,1.1201667E0,8.381353E0,3.2231455E0,1.0866943E1,1.0728335E0,1.6138647E1,1.4724768E0,1.9332492E0,7.045279E0,1.3360748E0,3.791378E0,7.0755653E0,2.389308E0,1.3749339E1,2.6103015E0,1.1810765E0,4.141589E0,2.933976E0,1.1384903E0,1.2508175E0],"tree_param":{"num_deleted":"0","num_feature":"14","num_nodes":"29","size_leaf_vector":"1"}},{"base_weights":[-4.321149E-8,1.4160119E-1,-3.6922956E-1,1.9181329E-1,-1.3217443E-1,-1.6232592E-1,-9.4841436E-2,-7.6868266E-2,2.204806E-1,-7.479695E-2,6.57181E-2,1.5655866E-1,1.2468815E-1,-2.1964602E-2,4.1700896E-2,2.4399726E-2,7.920532E-2,2.3877708E-2,-7.434384E-2],"categories":[],"categories_nodes":[],"categories_segments":[],"categories_sizes":[],"default_left":[0,0,0,0,0,0,0,0,0,0,0,0,0,0,0,0,0,0,0],"id":3,"left_children":[1,3,5,7,-1,-1,9,-1,11,-1,13,15,-1,-1,-1,17,-1,-1,-1],"loss_changes":[2.5547442E0,1.1169639E0,5.8739626E-1,4.830594E-1,0E0,0E0,1.7584413E-1,0E0,3.3100033E-1,0E0,5.033213E-2,3.5600436E-1,0E0,0E0,0E0,2.0823383E-1,0E0,0E0,0E0],"parents":[2147483647,0,0,1,1,2,2,3,3,6,6,8,8,10,10,11,11,15,15],"right_children":[2,4,6,8,-1,-1,10,-1,12,-1,14,16,-1,-1,-1,18,-1,-1,-1],"split_conditions":[-1.6666667E-1,4.8E1,1E0,3.888889E-1,-1.3217443E-1,-1.6232592E-1,6.25E-2,-7.6868266E-2,-1.8749999E-2,-7.479695E-2,9.0229535E-1,-2E-1,1.2468815E-1,-2.1964602E-2,4.1700896E-2,-3.846154E-1,7.920532E-2,2.3877708E-2,-7.434384E-2],"split_indices":[1,0,6,9,0,0,13,0,5,0,9,1,0,0,0,1,0,0,0],"split_type":[0,0,0,0,0,0,0,0,0,0,0,0,0,0,0,0,0,0,0],"sum_hessian":[4.6863434E1,3.4318592E1,1.2544845E1,3.2210987E1,2.107606E0,7.115953E0,5.4288917E0,1.4596817E0,3.0751305E1,2.4850607E0,2.9438307E0,2.4521376E1,6.229927E0,1.0169144E0,1.9269165E0,1.1547142E1,1.2974235E1,1.0188895E1,1.3582469E0],"tree_param":{"num_deleted":"0","num_feature":"14","num_nodes":"19","size_leaf_vector":"1"}},{"base_weights":[-4.7836537E-8,8.085831E-2,-1.6082886E-1,1.7478552E-1,-2.3099156E-1,2.0889921E-1,-1.7502922E-1,-1.258847E-1,-1.7196836E-2,-2.688459E-2,2.2929282E-1,-8.7064885E-2,9.4025545E-3,-4.2292368E-2,5.0562404E-2,3.0031344E-1,1.4512032E-1,1.2811728E-1,-2.1857183E-2,6.116956E-3,1.0417507E-1,-3.581332E-2,5.7517525E-2,6.9052647E-3,5.0313514E-2],"categories":[],"categories_nodes":[],"categories_segments":[],"categories_sizes":[],"default_left":[0,0,0,0,0,0,0,0,0,0,0,0,0,0,0,0,0,0,0,0,0,0,0,0,0],"id":4,"left_children":[1,3,-1,5,7,9,11,-1,13,-1,15,-1,-1,-1,17,19,21,23,-1,-1,-1,-1,-1,-1,-1],"loss_changes":[2.0638685E0,1.252202E0,0E0,4.2278445E-1,3.9634532E-1,2.0284486E-1,9.0389736E-2,0E0,5.5214502E-2,0E0,1.256597E-1,0E0,0E0,0E0,5.184392E-2,1.8237829E-1,2.0644549E-1,8.997668E-3,0E0,0E0,0E0,0E0,0E0,0E0,0E0],"parents":[2147483647,0,0,1,1,3,3,4,4,5,5,6,6,8,8,10,10,14,14,15,15,16,16,17,17],"right_children":[2,4,-1,6,8,10,12,-1,14,-1,16,-1,-1,-1,18,20,22,24,-1,-1,-1,-1,-1,-1,-1],"split_conditions":[4.8E1,-1.6666667E-1,-1.6082886E-1,9.9382305E-1,1E0,5E-2,1E0,-1.258847E-1,9.009214E-1,-2.688459E-2,5.40249E-1,-8.7064885E-2,9.4025545E-3,-4.2292368E-2,9.470851E-1,4.292531E-1,6.875E-1,4.8875337E0,-2.1857183E-2,6.116956E-3,1.0417507E-1,-3.581332E-2,5.7517525E-2,6.9052647E-3,5.0313514E-2],"split_indices":[0,1,0,10,6,13,6,0,9,0,9,0,0,0,9,9,7,4,0,0,0,0,0,0,0],"split_type":[0,0,0,0,0,0,0,0,0,0,0,0,0,0,0,0,0,0,0,0,0,0,0,0,0],"sum_hessian":[4.5611786E1,4.037176E1,5.240024E0,3.1364492E1,9.007267E0,2.8944658E1,2.4198341E0,4.2738695E0,4.733398E0,1.6339011E0,2.7310759E1,1.2922657E0,1.1275685E0,1.292263E0,3.441135E0,1.3419887E1,1.3890871E1,2.0898476E0,1.3512875E0,2.1330605E0,1.1286826E1,1.8470024E0,1.2043868E1,1.00459E0,1.0852575E0],"tree_param":{"num_deleted":"0","num_feature":"14","num_nodes":"25","size_leaf_vector":"1"}},{"base_weights":[-1.1923555E-7,7.017286E-2,-1.4809969E-1,1.4264463E-1,-1.8224719E-1,-6.685746E-2,1.6489725E-1,-1.0924419E-1,3.1972562E-3,2.5506476E-1,8.280258E-2,-4.221967E-2,6.73926E-2,1.31147E-1,3.2869872E-1,1.2553546E-1,-5.342799E-2,1.4393921E-1,-2.5065595E-2,6.682636E-2,-5.7854436E-2,5.714121E-2,1.2286142E-1,-1.51219135E-2,4.673697E-2,5.212318E-2,1.1465773E-2],"categories":[],"categories_nodes":[],"categories_segments":[],"categories_sizes":[],"default_left":[0,0,0,0,0,0,0,0,0,0,0,0,0,0,0,0,0,0,0,0,0,0,0,0,0,0,0],"id":5,"left_children":[1,3,-1,5,7,-1,9,-1,11,13,15,-1,17,19,21,23,-1,25,-1,-1,-1,-1,-1,-1,-1,-1,-1],"loss_changes":[1.6090025E0,7.6991403E-1,0E0,2.9828507E-1,3.2196575E-1,0E0,2.0750082E-1,0E0,6.215481E-2,8.6809814E-2,2.191003E-1,0E0,6.538881E-2,2.4985737E-1,1.4376223E-2,9.168984E-2,0E0,4.1726753E-3,0E0,0E0,0E0,0E0,0E0,0E0,0E0,0E0,0E0],"parents":[2147483647,0,0,1,1,3,3,4,4,6,6,8,8,9,9,10,10,12,12,13,13,14,14,15,15,17,17],"right_children":[2,4,-1,6,8,-1,10,-1,12,14,16,-1,18,20,22,24,-1,26,-1,-1,-1,-1,-1,-1,-1,-1,-1],"split_conditions":[4.8E1,-1.6666667E-1,-1.4809969E-1,3.888889E-1,1E0,-6.685746E-2,5.3554636E-1,-1.0924419E-1,9.009214E-1,3.125E-1,5E-2,-4.221967E-2,9.470851E-1,-1.7330728E-1,2.4E1,9.428549E-1,-5.342799E-2,1.0008996E0,-2.5065595E-2,6.682636E-2,-5.7854436E-2,5.714121E-2,1.2286142E-1,-1.51219135E-2,4.673697E-2,5.212318E-2,1.1465773E-2],"split_indices":[0,1,0,9,6,0,9,0,9,12,11,0,9,5,0,9,0,10,0,0,0,0,0,0,0,0,0],"split_type":[0,0,0,0,0,0,0,0,0,0,0,0,0,0,0,0,0,0,0,0,0,0,0,0,0,0,0],"sum_hessian":[4.444661E1,3.9666058E1,4.780551E0,3.115586E1,8.510199E0,1.270631E0,2.988523E1,3.809683E0,4.7005153E0,1.3238241E1,1.6646988E1,1.0821118E0,3.6184034E0,5.970918E0,7.2673225E0,1.4749891E1,1.897097E0,2.4316711E0,1.1867324E0,4.898402E0,1.072516E0,3.9202359E0,3.347087E0,2.0664673E0,1.2683424E1,1.3949654E0,1.0367059E0],"tree_param":{"num_deleted":"0","num_feature":"14","num_nodes":"27","size_leaf_vector":"1"}},{"base_weights":[-1.832627E-8,6.862346E-2,-1.4087114E-1,3.3310476E-1,-4.2292164E-3,2.4664683E-2,1.1128887E-1,3.8508005E-2,-9.888457E-2,-2.1918675E-1,9.1924354E-2,-1.0162661E-1,1.4126274E-2,-9.3699105E-2,1.261142E-1,1.8592931E-2,-5.506491E-2,-2.2307562E-2,4.4182565E-2],"categories":[],"categories_nodes":[],"categories_segments":[],"categories_sizes":[],"default_left":[0,0,0,0,0,0,0,0,0,0,0,0,0,0,0,0,0,0,0],"id":6,"left_children":[1,3,-1,5,7,-1,-1,9,-1,11,13,-1,-1,15,17,-1,-1,-1,-1],"loss_changes":[1.4720341E0,7.6938343E-1,0E0,5.137855E-2,4.6098116E-1,0E0,0E0,4.2470106E-1,0E0,1.860156E-1,1.7078331E-1,0E0,0E0,7.3896304E-2,1.0249117E-1,0E0,0E0,0E0,0E0],"parents":[2147483647,0,0,1,1,3,3,4,4,7,7,9,9,10,10,13,13,14,14],"right_children":[2,4,-1,6,8,-1,-1,10,-1,12,14,-1,-1,16,18,-1,-1,-1,-1],"split_conditions":[4.8E1,1.5885814E0,-1.4087114E-1,5.625E-1,8.517033E-1,2.4664683E-2,1.1128887E-1,5.2694327E-1,-9.888457E-2,-1.7604166E-1,6.25E-2,-1.0162661E-1,1.4126274E-2,-3.846154E-1,3.7120194E0,1.8592931E-2,-5.506491E-2,-2.2307562E-2,4.4182565E-2],"split_indices":[0,4,0,7,2,0,0,9,0,5,13,0,0,1,4,0,0,0,0],"split_type":[0,0,0,0,0,0,0,0,0,0,0,0,0,0,0,0,0,0,0],"sum_hessian":[4.3681923E1,3.885716E1,4.824764E0,7.620329E0,3.1236828E1,1.4149569E0,6.205372E0,2.8389692E1,2.8471372E0,4.3415465E0,2.4048145E1,2.8082962E0,1.5332501E0,3.4697323E0,2.0578413E1,1.383281E0,2.0864513E0,1.7247468E0,1.8853666E1],"tree_param":{"num_deleted":"0","num_feature":"14","num_nodes":"19","size_leaf_vector":"1"}},{"base_weights":[-4.6408488E-8,6.0459387E-2,-1.319557E-1,2.8542078E-1,-2.83891E-3,3.0716477E-2,9.256414E-2,-2.0453028E-1,4.7467425E-2,-8.092619E-3,-7.945555E-2,7.904518E-2,-7.3879264E-2,-1.0592332E-1,1.0301622E-1,-6.7735255E-2,1.43451085E-2,5.971521E-2,1.697851E-2],"categories":[],"categories_nodes":[],"categories_segments":[],"categories_sizes":[],"default_left":[0,0,0,0,0,0,0,0,0,0,0,0,0,0,0,0,0,0,0],"id":7,"left_children":[1,3,-1,5,7,-1,-1,9,11,-1,-1,13,-1,15,17,-1,-1,-1,-1],"loss_changes":[1.1888165E0,5.604521E-1,0E0,4.9803853E-3,3.309583E-1,0E0,0E0,6.256911E-2,2.620416E-1,0E0,0E0,1.18970126E-1,0E0,7.140532E-2,8.7176785E-2,0E0,0E0,0E0,0E0],"parents":[2147483647,0,0,1,1,3,3,4,4,7,7,8,8,11,11,13,13,14,14],"right_children":[2,4,-1,6,8,-1,-1,10,12,-1,-1,14,-1,16,18,-1,-1,-1,-1],"split_conditions":[4.8E1,1.5885814E0,-1.319557E-1,5.625E-1,6.25E-2,3.0716477E-2,9.256414E-2,-3.846154E-1,8.517033E-1,-8.092619E-3,-7.945555E-2,5.2694327E-1,-7.3879264E-2,-1.7604166E-1,-3.251953E-1,-6.7735255E-2,1.43451085E-2,5.971521E-2,1.697851E-2],"split_indices":[0,4,0,7,13,0,0,1,2,0,0,9,0,5,5,0,0,0,0],"split_type":[0,0,0,0,0,0,0,0,0,0,0,0,0,0,0,0,0,0,0],"sum_hessian":[4.270375E1,3.830159E1,4.402159E0,7.6399965E0,3.0661594E1,1.4658593E0,6.174137E0,5.5089726E0,2.5152622E1,1.7639688E0,3.745004E0,2.3371004E1,1.7816169E0,2.2890599E0,2.1081945E1,1.0229379E0,1.2661221E0,5.798432E0,1.5283513E1],"tree_param":{"num_deleted":"0","num_feature":"14","num_nodes":"19","size_leaf_vector":"1"}},{"base_weights":[-1.5219705E-8,5.229074E-2,-1.2318574E-1,-1.9293633E-1,9.5412865E-2,-7.378272E-2,-6.986837E-2,2.533799E-1,4.0672608E-2,-3.6376395E-4,-3.3339355E-2,1.3310808E-1,9.421528E-2,6.586067E-2,-6.283412E-2,-1.2247157E-2,6.853893E-2,-3.2462016E-2,8.536638E-2,3.088116E-2,-3.3301063E-2],"categories":[],"categories_nodes":[],"categories_segments":[],"categories_sizes":[],"default_left":[0,0,0,0,0,0,0,0,0,0,0,0,0,0,0,0,0,0,0,0,0],"id":8,"left_children":[1,3,-1,5,7,-1,9,11,13,-1,-1,15,-1,17,-1,-1,-1,-1,19,-1,-1],"loss_changes":[9.384467E-1,4.2838305E-1,0E0,2.2796556E-2,2.8058946E-1,0E0,9.049179E-3,1.9975185E-2,1.7869356E-1,0E0,0E0,8.519425E-2,0E0,9.255955E-2,0E0,0E0,0E0,0E0,8.949666E-2,0E0,0E0],"parents":[2147483647,0,0,1,1,3,3,4,4,6,6,7,7,8,8,11,11,13,13,18,18],"right_children":[2,4,-1,6,8,-1,10,12,14,-1,-1,16,-1,18,-1,-1,-1,-1,20,-1,-1],"split_conditions":[4.8E1,6.25E-2,-1.2318574E-1,1E0,1.5885814E0,-7.378272E-2,6.25E-1,2.4E1,8.517033E-1,-3.6376395E-4,-3.3339355E-2,-6E-1,9.421528E-2,3.7120194E0,-6.283412E-2,-1.2247157E-2,6.853893E-2,-3.2462016E-2,6.019437E0,3.088116E-2,-3.3301063E-2],"split_indices":[0,13,0,6,4,0,7,0,2,0,0,1,0,4,0,0,0,0,4,0,0],"split_type":[0,0,0,0,0,0,0,0,0,0,0,0,0,0,0,0,0,0,0,0,0],"sum_hessian":[4.170645E1,3.776933E1,3.9371243E0,5.1287794E0,3.264055E1,2.8869336E0,2.2418458E0,7.4661865E0,2.5174362E1,1.2280011E0,1.0138448E0,3.5743892E0,3.8917973E0,2.3540428E1,1.6339325E0,1.4681998E0,2.1061895E0,1.9138609E0,2.1626568E1,2.0287115E1,1.3394539E0],"tree_param":{"num_deleted":"0","num_feature":"14","num_nodes":"21","size_leaf_vector":"1"}},{"base_weights":[7.165597E-8,4.788578E-2,-1.16983704E-1,2.4326468E-1,-6.392609E-3,1.9521171E-2,8.190319E-2,2.4572853E-2,-6.755034E-2,-1.503406E-1,6.0731504E-2,1.7919822E-2,-6.4969845E-2,-3.8846314E-2,7.492237E-2,2.8007073E-2,-7.658898E-3],"categories":[],"categories_nodes":[],"categories_segments":[],"categories_sizes":[],"default_left":[0,0,0,0,0,0,0,0,0,0,0,0,0,0,0,0,0],"id":9,"left_children":[1,3,-1,5,7,-1,-1,9,-1,11,13,-1,-1,-1,15,-1,-1],"loss_changes":[8.019383E-1,4.0718752E-1,0E0,2.644977E-2,2.149196E-1,0E0,0E0,1.8607761E-1,0E0,8.361756E-2,7.4208274E-2,0E0,0E0,0E0,4.473631E-2,0E0,0E0],"parents":[2147483647,0,0,1,1,3,3,4,4,7,7,9,9,10,10,14,14],"right_children":[2,4,-1,6,8,-1,-1,10,-1,12,14,-1,-1,-1,16,-1,-1],"split_conditions":[4.8E1,1.5885814E0,-1.16983704E-1,5.625E-1,6.019437E0,1.9521171E-2,8.190319E-2,3.8933654E0,-6.755034E-2,-4.5454547E-1,0E0,1.7919822E-2,-6.4969845E-2,-3.8846314E-2,-1.6666667E-1,2.8007073E-2,-7.658898E-3],"split_indices":[0,4,0,7,4,0,0,4,0,1,8,0,0,0,1,0,0],"split_type":[0,0,0,0,0,0,0,0,0,0,0,0,0,0,0,0,0],"sum_hessian":[4.0946804E1,3.7249702E1,3.6971002E0,7.3415346E0,2.9908169E1,1.5061911E0,5.8353434E0,2.6977457E1,2.9307125E0,4.080532E0,2.2896925E1,1.0015538E0,3.0789783E0,1.025538E0,2.1871387E1,1.8539692E1,3.3316956E0],"tree_param":{"num_deleted":"0","num_feature":"14","num_nodes":"17","size_leaf_vector":"1"}},{"base_weights":[-2.0839638E-8,4.1436005E-2,-1.0907079E-1,2.1488947E-1,-6.7812125E-3,1.635933E-2,7.252178E-2,-1.7400624E-1,2.9394494E-2,-1.6701862E-2,-6.0876094E-2,4.911776E-2,-4.9147066E-2,-9.909524E-2,6.712286E-2,-5.259605E-3,-3.9234024E-2,-2.4101464E-2,2.592467E-2],"categories":[],"categories_nodes":[],"categories_segments":[],"categories_sizes":[],"default_left":[0,0,0,0,0,0,0,0,0,0,0,0,0,0,0,0,0,0,0],"id":10,"left_children":[1,3,-1,5,7,-1,-1,9,11,-1,-1,13,-1,15,17,-1,-1,-1,-1],"loss_changes":[6.3400304E-1,3.1742132E-1,0E0,2.2331119E-2,1.8981141E-1,0E0,0E0,7.7762753E-3,1.06963605E-1,0E0,0E0,7.155585E-2,0E0,5.559325E-3,7.033636E-2,0E0,0E0,0E0,0E0],"parents":[2147483647,0,0,1,1,3,3,4,4,7,7,8,8,11,11,13,13,14,14],"right_children":[2,4,-1,6,8,-1,-1,10,12,-1,-1,14,-1,16,18,-1,-1,-1,-1],"split_conditions":[4.8E1,1.5885814E0,-1.0907079E-1,5.625E-1,6.25E-2,1.635933E-2,7.252178E-2,-3.846154E-1,8.517033E-1,-1.6701862E-2,-6.0876094E-2,5.2694327E-1,-4.9147066E-2,9.7570086E-1,-2E-1,-5.259605E-3,-3.9234024E-2,-2.4101464E-2,2.592467E-2],"split_indices":[0,4,0,7,13,0,0,1,2,0,0,9,0,10,1,0,0,0,0],"split_type":[0,0,0,0,0,0,0,0,0,0,0,0,0,0,0,0,0,0,0],"sum_hessian":[4.0084885E1,3.6779186E1,3.3056977E0,7.24822E0,2.9530968E1,1.4742632E0,5.773957E0,4.574581E0,2.4956387E1,1.4727367E0,3.1018443E0,2.3321566E1,1.6348221E0,2.0383885E0,2.1283176E1,1.004899E0,1.0334895E0,2.0962903E0,1.9186886E1],"tree_param":{"num_deleted":"0","num_feature":"14","num_nodes":"19","size_leaf_vector":"1"}},{"base_weights":[-1.6975926E-8,3.690033E-2,-1.02862254E-1,-1.600068E-1,6.8911314E-2,-5.9887636E-2,-6.1027728E-2,2.716372E-2,1.9304648E-1,-2.5023248E-2,-2.531696E-3,4.3726157E-2,-4.2779017E-2,8.663573E-2,7.3587626E-2,1.5105722E-2,1.3337621E-1,-1.639569E-2,4.712063E-2,-5.450507E-2,1.7412381E-2,7.7545773E-3,4.558297E-2],"categories":[],"categories_nodes":[],"categories_segments":[],"categories_sizes":[],"default_left":[0,0,0,0,0,0,0,0,0,0,0,0,0,0,0,0,0,0,0,0,0,0,0],"id":11,"left_children":[1,3,-1,5,7,-1,9,11,13,-1,-1,15,-1,17,-1,19,21,-1,-1,-1,-1,-1,-1],"loss_changes":[5.232542E-1,2.4637775E-1,0E0,9.472504E-3,1.6482088E-1,0E0,2.8496273E-3,7.8553885E-2,2.3753434E-2,0E0,0E0,6.007831E-2,0E0,5.049692E-2,0E0,1.750654E-1,7.509224E-3,0E0,0E0,0E0,0E0,0E0,0E0],"parents":[2147483647,0,0,1,1,3,3,4,4,6,6,7,7,8,8,11,11,13,13,15,15,16,16],"right_children":[2,4,-1,6,8,-1,10,12,14,-1,-1,16,-1,18,-1,20,22,-1,-1,-1,-1,-1,-1],"split_conditions":[4.8E1,6.25E-2,-1.02862254E-1,1E0,-8.632813E-2,-5.9887636E-2,1.0046644E0,8.517033E-1,2.4E1,-2.5023248E-2,-2.531696E-3,8.444196E-1,-4.2779017E-2,9.8288E-1,7.3587626E-2,8.727402E-1,9.9310297E-1,-1.639569E-2,4.712063E-2,-5.450507E-2,1.7412381E-2,7.7545773E-3,4.558297E-2],"split_indices":[0,13,0,6,5,0,10,2,0,0,0,2,0,10,0,9,10,0,0,0,0,0,0],"split_type":[0,0,0,0,0,0,0,0,0,0,0,0,0,0,0,0,0,0,0,0,0,0,0],"sum_hessian":[3.9356857E1,3.6338467E1,3.0183911E0,4.5222898E0,3.1816177E1,2.5034013E0,2.0188885E0,2.4721107E1,7.0950704E0,1.005027E0,1.0138614E0,2.320005E1,1.521056E0,3.2117686E0,3.8833017E0,1.847157E1,4.728482E0,1.1429912E0,2.0687776E0,2.729542E0,1.5742027E1,1.0484936E0,3.6799881E0],"tree_param":{"num_deleted":"0","num_feature":"14","num_nodes":"23","size_leaf_vector":"1"}},{"base_weights":[1.3785884E-10,3.2883927E-2,-9.675E-2,-1.4726909E-1,6.1290953E-2,-5.3581428E-2,-1.8424882E-2,2.3037476E-2,1.8146452E-1,3.9154474E-2,-4.6715103E-2,7.7666946E-2,7.025651E-2,1.3729863E-2,1.1749537E-1,-1.4904809E-2,4.4645075E-2,-4.7672145E-2,1.5090319E-2,7.339589E-3,4.028548E-2],"categories":[],"categories_nodes":[],"categories_segments":[],"categories_sizes":[],"default_left":[0,0,0,0,0,0,0,0,0,0,0,0,0,0,0,0,0,0,0,0,0],"id":12,"left_children":[1,3,-1,5,7,-1,-1,9,11,13,-1,15,-1,17,19,-1,-1,-1,-1,-1,-1],"loss_changes":[4.3090484E-1,1.9772422E-1,0E0,3.332384E-3,1.4548218E-1,0E0,0E0,8.0543555E-2,2.4035394E-2,4.719068E-2,0E0,4.4499613E-2,0E0,1.3193598E-1,5.885251E-3,0E0,0E0,0E0,0E0,0E0,0E0],"parents":[2147483647,0,0,1,1,3,3,4,4,7,7,8,8,9,9,11,11,13,13,14,14],"right_children":[2,4,-1,6,8,-1,-1,10,12,14,-1,16,-1,18,20,-1,-1,-1,-1,-1,-1],"split_conditions":[4.8E1,6.25E-2,-9.675E-2,1E0,3.125E-1,-5.3581428E-2,-1.8424882E-2,8.517033E-1,2.4E1,8.444196E-1,-4.6715103E-2,9.8621154E-1,7.025651E-2,8.727402E-1,9.9310297E-1,-1.4904809E-2,4.4645075E-2,-4.7672145E-2,1.5090319E-2,7.339589E-3,4.028548E-2],"split_indices":[0,13,0,6,12,0,0,2,0,2,0,10,0,9,10,0,0,0,0,0,0],"split_type":[0,0,0,0,0,0,0,0,0,0,0,0,0,0,0,0,0,0,0,0,0],"sum_hessian":[3.8631985E1,3.5872276E1,2.7597067E0,4.3160834E0,3.1556192E1,2.3705063E0,1.9455773E0,2.4840652E1,6.7155395E0,2.3502558E1,1.3380959E0,3.0951662E0,3.6203735E0,1.863126E1,4.871297E0,1.2175754E0,1.8775907E0,2.6721306E0,1.595913E1,1.1203986E0,3.7508984E0],"tree_param":{"num_deleted":"0","num_feature":"14","num_nodes":"21","size_leaf_vector":"1"}},{"base_weights":[6.372532E-8,2.9124476E-2,-9.065652E-2,-6.8045915E-3,1.5719686E-1,1.4552816E-2,-5.3075448E-2,-2.2380059E-3,1.8218964E-1,-1.1180921E-1,3.794183E-2,8.644209E-2,6.791403E-2,1.2595248E-2,-1.7357957E-1,-5.82564E-2,5.0172124E-2,-1.1015614E-2,4.497507E-2,-6.1824206E-2,-1.4431577E-2,-3.947681E-3,-2.2349767E-2,3.338599E-2,7.45961E-3],"categories":[],"categories_nodes":[],"categories_segments":[],"categories_sizes":[],"default_left":[0,0,0,0,0,0,0,0,0,0,0,0,0,0,0,0,0,0,0,0,0,0,0,0,0],"id":13,"left_children":[1,3,-1,5,7,9,-1,-1,11,13,15,17,-1,-1,19,21,23,-1,-1,-1,-1,-1,-1,-1,-1],"loss_changes":[3.5175544E-1,1.6881356E-1,0E0,1.0948567E-1,3.4395203E-2,8.424108E-2,0E0,0E0,1.0087907E-2,4.9856506E-2,3.0673642E-2,3.545488E-2,0E0,0E0,3.9180443E-3,1.307467E-3,3.0428797E-2,0E0,0E0,0E0,0E0,0E0,0E0,0E0,0E0],"parents":[2147483647,0,0,1,1,3,3,4,4,5,5,8,8,9,9,10,10,11,11,14,14,15,15,16,16],"right_children":[2,4,-1,6,8,10,-1,-1,12,14,16,18,-1,-1,20,22,24,-1,-1,-1,-1,-1,-1,-1,-1],"split_conditions":[4.8E1,-8.632813E-2,-9.065652E-2,6.019437E0,3.125E-1,3.8933654E0,-5.3075448E-2,-2.2380059E-3,2.4E1,-2.8001302E-1,-2E-1,9.8621154E-1,6.791403E-2,1.2595248E-2,-1.5748698E-1,-3.2910156E-1,5E-2,-1.1015614E-2,4.497507E-2,-6.1824206E-2,-1.4431577E-2,-3.947681E-3,-2.2349767E-2,3.338599E-2,7.45961E-3],"split_indices":[0,5,0,4,12,4,0,0,0,5,1,10,0,0,5,5,3,0,0,0,0,0,0,0,0],"split_type":[0,0,0,0,0,0,0,0,0,0,0,0,0,0,0,0,0,0,0,0,0,0,0,0,0],"sum_hessian":[3.7967384E1,3.545401E1,2.5133758E0,2.8426256E1,7.027753E0,2.6067934E1,2.358323E0,1.0185928E0,6.00916E0,3.4809983E0,2.2586935E1,2.8311112E0,3.1780486E0,1.0892776E0,2.3917205E0,2.1232305E0,2.0463705E1,1.1062216E0,1.7248896E0,1.3894135E0,1.002307E0,1.0415506E0,1.0816798E0,4.9974995E0,1.5466207E1],"tree_param":{"num_deleted":"0","num_feature":"14","num_nodes":"25","size_leaf_vector":"1"}},{"base_weights":[-1.7778836E-8,2.6307298E-2,-8.6112276E-2,1.503021E-1,-7.609909E-3,7.41438E-2,5.401525E-2,1.1532725E-2,-5.0234575E-2,-7.111811E-3,3.7027605E-2,-1.3276634E-1,3.0951591E-2,-5.3099427E-2,-1.1271197E-2,4.2388663E-2,-2.8698368E-2,-3.0144831E-2,1.6225558E-2],"categories":[],"categories_nodes":[],"categories_segments":[],"categories_sizes":[],"default_left":[0,0,0,0,0,0,0,0,0,0,0,0,0,0,0,0,0,0,0],"id":14,"left_children":[1,3,-1,5,7,9,-1,11,-1,-1,-1,13,15,-1,-1,17,-1,-1,-1],"loss_changes":[2.9840538E-1,1.5338296E-1,0E0,4.374966E-3,9.181447E-2,2.1720968E-2,0E0,8.024273E-2,0E0,0E0,0E0,7.715702E-3,3.9906748E-2,0E0,0E0,4.453829E-2,0E0,0E0,0E0],"parents":[2147483647,0,0,1,1,3,3,4,4,5,5,7,7,11,11,12,12,15,15],"right_children":[2,4,-1,6,8,10,-1,12,-1,-1,-1,14,16,-1,-1,18,-1,-1,-1],"split_conditions":[4.8E1,1.7957546E0,-8.6112276E-2,2.4E1,6.019437E0,9.8557574E-1,5.401525E-2,3.4199631E0,-5.0234575E-2,-7.111811E-3,3.7027605E-2,8.444196E-1,8.517033E-1,-5.3099427E-2,-1.1271197E-2,5.2694327E-1,-2.8698368E-2,-3.0144831E-2,1.6225558E-2],"split_indices":[0,4,0,0,4,10,0,4,0,0,0,2,2,0,0,9,0,0,0],"split_type":[0,0,0,0,0,0,0,0,0,0,0,0,0,0,0,0,0,0,0],"sum_hessian":[3.7517216E1,3.5199524E1,2.3176885E0,6.8233237E0,2.8376202E1,2.8976142E0,3.9257092E0,2.6169886E1,2.206316E0,1.1443816E0,1.7532327E0,2.4117215E0,2.3758165E1,1.0599284E0,1.351793E0,2.2399961E1,1.3582023E0,1.1206433E0,2.127932E1],"tree_param":{"num_deleted":"0","num_feature":"14","num_nodes":"19","size_leaf_vector":"1"}},{"base_weights":[-2.2197524E-8,2.3303509E-2,-8.038534E-2,-5.3003557E-2,6.686433E-2,2.804856E-2,-1.7639656E-1,2.8291287E-2,1.5002698E-1,-3.706673E-2,8.4711626E-2,-7.794556E-3,-2.0437895E-1,-3.6473725E-2,5.26648E-2,6.3114315E-2,5.7473004E-2,1.3493959E-4,3.4420405E-2,-7.333253E-2,-1.4655582E-2,1.0273939E-2,3.7165456E-2,-1.3491978E-2,3.627379E-2],"categories":[],"categories_nodes":[],"categories_segments":[],"categories_sizes":[],"default_left":[0,0,0,0,0,0,0,0,0,0,0,0,0,0,0,0,0,0,0,0,0,0,0,0,0],"id":15,"left_children":[1,3,-1,5,7,9,11,13,15,-1,17,-1,19,-1,21,23,-1,-1,-1,-1,-1,-1,-1,-1,-1],"loss_changes":[2.4335484E-1,1.22724816E-1,0E0,1.4084126E-1,7.039227E-2,8.832657E-2,1.7940193E-2,6.896577E-2,1.3692543E-2,0E0,1.8140066E-2,0E0,1.6171515E-2,0E0,1.59965E-2,2.9181523E-2,0E0,0E0,0E0,0E0,0E0,0E0,0E0,0E0,0E0],"parents":[2147483647,0,0,1,1,3,3,4,4,5,5,6,6,7,7,8,8,10,10,12,12,14,14,15,15],"right_children":[2,4,-1,6,8,10,12,14,16,-1,18,-1,20,-1,22,24,-1,-1,-1,-1,-1,-1,-1,-1,-1],"split_conditions":[4.8E1,-1.671224E-1,-8.038534E-2,5E-2,3.125E-1,6.25E-2,3.9670932E-1,1E0,2.4E1,-3.706673E-2,1E-1,-7.794556E-3,5.51701E0,-3.6473725E-2,9.6406907E-1,9.8621154E-1,5.7473004E-2,1.3493959E-4,3.4420405E-2,-7.333253E-2,-1.4655582E-2,1.0273939E-2,3.7165456E-2,-1.3491978E-2,3.627379E-2],"split_indices":[0,5,0,3,12,13,9,6,0,0,11,0,4,0,10,10,0,0,0,0,0,0,0,0,0],"split_type":[0,0,0,0,0,0,0,0,0,0,0,0,0,0,0,0,0,0,0,0,0,0,0,0,0],"sum_hessian":[3.69729E1,3.4854645E1,2.118255E0,1.2587643E1,2.2267002E1,8.063638E0,4.5240045E0,1.6127045E1,6.139958E0,1.8726778E0,6.19096E0,1.0121055E0,3.511899E0,1.6980063E0,1.4429038E1,2.8006444E0,3.3393133E0,1.893027E0,4.297933E0,2.3379557E0,1.1739434E0,1.2640826E1,1.7882117E0,1.0531191E0,1.7475255E0],"tree_param":{"num_deleted":"0","num_feature":"14","num_nodes":"25","size_leaf_vector":"1"}},{"base_weights":[-3.3759093E-8,-1.7546177E-1,3.1852625E-2,-5.7310052E-2,-1.617158E-2,4.006113E-3,1.26285E-1,-4.5625668E-2,2.2497961E-2,4.8175067E-2,5.0095387E-2,3.5840183E-2,-4.267541E-2,-1.4741571E-2,3.200824E-2,-2.194862E-2,4.9352344E-2,3.2768153E-2,7.5409827E-3],"categories":[],"categories_nodes":[],"categories_segments":[],"categories_sizes":[],"default_left":[0,0,0,0,0,0,0,0,0,0,0,0,0,0,0,0,0,0,0],"id":16,"left_children":[1,3,5,-1,-1,7,9,-1,11,13,-1,15,-1,-1,-1,-1,17,-1,-1],"loss_changes":[2.155171E-1,9.1692805E-4,8.531603E-2,0E0,0E0,7.915312E-2,1.547911E-2,0E0,5.8576964E-2,2.7681611E-2,0E0,3.793608E-2,0E0,0E0,0E0,0E0,2.8184127E-2,0E0,0E0],"parents":[2147483647,0,0,1,1,2,2,5,5,6,6,8,8,9,9,11,11,16,16],"right_children":[2,4,6,-1,-1,8,10,-1,12,14,-1,16,-1,-1,-1,-1,18,-1,-1],"split_conditions":[6.25E-2,-2.1223958E-1,3.125E-1,-5.7310052E-2,-1.617158E-2,5.2694327E-1,2.4E1,-4.5625668E-2,8.517033E-1,9.8621154E-1,5.0095387E-2,-2E-1,-4.267541E-2,-1.4741571E-2,3.200824E-2,-2.194862E-2,5E-2,3.2768153E-2,7.5409827E-3],"split_indices":[13,5,12,0,0,9,0,0,2,10,0,1,0,0,0,0,3,0,0],"split_type":[0,0,0,0,0,0,0,0,0,0,0,0,0,0,0,0,0,0,0],"sum_hessian":[3.6561478E1,4.9247484E0,3.163673E1,3.8588562E0,1.065892E0,2.5237144E1,6.3995843E0,1.9078991E0,2.3329247E1,2.940296E0,3.4592881E0,2.2305307E1,1.0239388E0,1.1643505E0,1.7759454E0,1.9731807E0,2.0332127E1,4.844135E0,1.5487992E1],"tree_param":{"num_deleted":"0","num_feature":"14","num_nodes":"19","size_leaf_vector":"1"}},{"base_weights":[1.9491173E-8,2.0681448E-2,-7.506582E-2,3.4193084E-2,-4.1612875E-2,1.3606861E-2,3.7484E-2,6.782932E-2,-5.4127076E-3,-7.841092E-3,2.8047998E-2,-1.221792E-1,2.5053365E-2,-8.04582E-3,-4.2435538E-2,-1.3583474E-2,1.1605123E-2],"categories":[],"categories_nodes":[],"categories_segments":[],"categories_sizes":[],"default_left":[0,0,0,0,0,0,0,0,0,0,0,0,0,0,0,0,0],"id":17,"left_children":[1,3,-1,5,-1,7,-1,9,11,-1,-1,13,15,-1,-1,-1,-1],"loss_changes":[1.9759227E-1,8.069694E-2,0E0,6.0539644E-2,0E0,2.9528504E-2,0E0,2.0329654E-2,8.0825545E-2,0E0,0E0,4.8322156E-3,1.9166622E-2,0E0,0E0,0E0,0E0],"parents":[2147483647,0,0,1,1,3,3,5,5,7,7,8,8,11,11,12,12],"right_children":[2,4,-1,6,-1,8,-1,10,12,-1,-1,14,16,-1,-1,-1,-1],"split_conditions":[4.8E1,6.019437E0,-7.506582E-2,-1.8749999E-2,-4.1612875E-2,-3.4192708E-1,3.7484E-2,-3.860026E-1,-1.671224E-1,-7.841092E-3,2.8047998E-2,5.3153527E-1,1E0,-8.04582E-3,-4.2435538E-2,-1.3583474E-2,1.1605123E-2],"split_indices":[0,4,0,5,0,5,0,5,5,0,0,9,6,0,0,0,0],"split_type":[0,0,0,0,0,0,0,0,0,0,0,0,0,0,0,0,0],"sum_hessian":[3.6182858E1,3.4267857E1,1.9150001E0,3.2314056E1,1.9537978E0,2.7276651E1,5.0374074E0,6.416813E0,2.0859838E1,1.37263E0,5.044183E0,3.6935048E0,1.7166334E1,1.0230561E0,2.6704485E0,2.4098494E0,1.4756484E1],"tree_param":{"num_deleted":"0","num_feature":"14","num_nodes":"17","size_leaf_vector":"1"}},{"base_weights":[6.779708E-9,1.8598247E-2,-7.039542E-2,3.097581E-2,-3.949673E-2,9.224899E-3,1.0524638E-1,-9.391551E-2,2.506412E-2,3.0608626E-2,1.4772317E-1,-1.6357307E-3,-3.8023125E-2,6.914232E-2,5.7349326E-3,-1.6423281E-2,2.635427E-2,5.8673084E-2,1.9268021E-2,-4.098094E-3,2.8365776E-2,-3.441756E-2,8.467482E-3],"categories":[],"categories_nodes":[],"categories_segments":[],"categories_sizes":[],"default_left":[0,0,0,0,0,0,0,0,0,0,0,0,0,0,0,0,0,0,0,0,0,0,0],"id":18,"left_children":[1,3,-1,5,-1,7,9,11,13,15,17,-1,-1,19,21,-1,-1,-1,-1,-1,-1,-1,-1],"loss_changes":[1.649586E-1,6.921331E-2,0E0,5.260894E-2,0E0,4.6054572E-2,1.8992975E-2,1.0262508E-2,2.0032898E-2,2.4114003E-2,5.2812696E-3,0E0,0E0,1.6480938E-2,5.1350385E-2,0E0,0E0,0E0,0E0,0E0,0E0,0E0,0E0],"parents":[2147483647,0,0,1,1,3,3,5,5,6,6,7,7,8,8,9,9,10,10,13,13,14,14],"right_children":[2,4,-1,6,-1,8,10,12,14,16,18,-1,-1,20,22,-1,-1,-1,-1,-1,-1,-1,-1],"split_conditions":[4.8E1,6.019437E0,-7.039542E-2,3.125E-1,-3.949673E-2,3.4199631E0,2.4E1,-4.5454547E-1,5E-2,9.8621154E-1,9.7700214E-1,-1.6357307E-3,-3.8023125E-2,5E-2,-1.8085937E-1,-1.6423281E-2,2.635427E-2,5.8673084E-2,1.9268021E-2,-4.098094E-3,2.8365776E-2,-3.441756E-2,8.467482E-3],"split_indices":[0,4,0,12,0,4,0,1,3,10,10,0,0,11,5,0,0,0,0,0,0,0,0],"split_type":[0,0,0,0,0,0,0,0,0,0,0,0,0,0,0,0,0,0,0,0,0,0,0],"sum_hessian":[3.579897E1,3.4023075E1,1.7758946E0,3.2167072E1,1.8560022E0,2.5750095E1,6.4169774E0,2.7717783E0,2.2978317E1,2.9514525E0,3.4655247E0,1.0658083E0,1.70597E0,6.2191343E0,1.6759182E1,1.2022614E0,1.749191E0,1.3496628E0,2.115862E0,1.5689424E0,4.6501923E0,1.9914565E0,1.4767726E1],"tree_param":{"num_deleted":"0","num_feature":"14","num_nodes":"23","size_leaf_vector":"1"}},{"base_weights":[-7.807395E-8,1.7740807E-2,-6.747405E-2,-5.003739E-3,1.3855988E-1,6.881265E-3,-3.699745E-2,1.3854651E-2,5.948604E-2,-6.4641565E-2,2.0404818E-2,5.659834E-3,-3.7685055E-2,5.8595408E-2,3.3744834E-3,-6.058667E-3,2.7264616E-2,-2.7028278E-2,6.6297287E-3],"categories":[],"categories_nodes":[],"categories_segments":[],"categories_sizes":[],"default_left":[0,0,0,0,0,0,0,0,0,0,0,0,0,0,0,0,0,0,0],"id":19,"left_children":[1,3,-1,5,7,9,-1,-1,-1,11,13,-1,-1,15,17,-1,-1,-1,-1],"loss_changes":[1.4978094E-1,9.6303925E-2,0E0,4.338203E-2,2.1448277E-2,2.8820017E-2,0E0,0E0,0E0,2.6612809E-2,1.5848462E-2,0E0,0E0,2.1035757E-2,3.3710487E-2,0E0,0E0,0E0,0E0],"parents":[2147483647,0,0,1,1,3,3,4,4,5,5,9,9,10,10,13,13,14,14],"right_children":[2,4,-1,6,8,10,-1,-1,-1,12,14,-1,-1,16,18,-1,-1,-1,-1],"split_conditions":[4.8E1,-1.8749999E-2,-6.747405E-2,6.019437E0,2.4E1,3.4199631E0,-3.699745E-2,1.3854651E-2,5.948604E-2,-4.5454547E-1,5E-2,5.659834E-3,-3.7685055E-2,1E-1,-1.8085937E-1,-6.058667E-3,2.7264616E-2,-2.7028278E-2,6.6297287E-3],"split_indices":[0,5,0,4,0,4,0,0,0,1,3,0,0,11,5,0,0,0,0],"split_type":[0,0,0,0,0,0,0,0,0,0,0,0,0,0,0,0,0,0,0],"sum_hessian":[3.553755E1,3.3793118E1,1.7444364E0,2.9246046E1,4.5470695E0,2.7432386E1,1.8136598E0,2.4817886E0,2.065281E0,3.7610688E0,2.3671318E1,1.8787088E0,1.88236E0,6.547615E0,1.7123703E1,2.012031E0,4.535584E0,2.2217453E0,1.49019575E1],"tree_param":{"num_deleted":"0","num_feature":"14","num_nodes":"19","size_leaf_vector":"1"}},{"base_weights":[9.2760686E-8,1.603437E-2,-6.308802E-2,-4.374457E-3,1.2533295E-1,6.6800783E-3,-3.558674E-2,1.2505675E-2,5.422569E-2,-1.3124595E-2,6.8808824E-2,-7.50878E-2,1.2130719E-2,7.052644E-3,4.2998623E-2,-3.8047023E-2,4.5562563E-3,-2.4943365E-2,7.2145066E-3],"categories":[],"categories_nodes":[],"categories_segments":[],"categories_sizes":[],"default_left":[0,0,0,0,0,0,0,0,0,0,0,0,0,0,0,0,0,0,0],"id":20,"left_children":[1,3,-1,5,7,9,-1,-1,-1,11,13,15,17,-1,-1,-1,-1,-1,-1],"loss_changes":[1.2541531E-1,7.763787E-2,0E0,3.8791955E-2,1.7829105E-2,3.582295E-2,0E0,0E0,0E0,3.590186E-2,2.0328645E-2,3.2815054E-2,2.1014053E-2,0E0,0E0,0E0,0E0,0E0,0E0],"parents":[2147483647,0,0,1,1,3,3,4,4,5,5,9,9,10,10,11,11,12,12],"right_children":[2,4,-1,6,8,10,-1,-1,-1,12,14,16,18,-1,-1,-1,-1,-1,-1],"split_conditions":[4.8E1,-1.8749999E-2,-6.308802E-2,6.019437E0,2.4E1,5.0723424E0,-3.558674E-2,1.2505675E-2,5.422569E-2,9.428549E-1,1E0,8.526222E-1,3.78034E0,7.052644E-3,4.2998623E-2,-3.8047023E-2,4.5562563E-3,-2.4943365E-2,7.2145066E-3],"split_indices":[0,5,0,4,0,4,0,0,0,9,6,2,4,0,0,0,0,0,0],"split_type":[0,0,0,0,0,0,0,0,0,0,0,0,0,0,0,0,0,0,0],"sum_hessian":[3.5194202E1,3.3559162E1,1.635038E0,2.9087723E1,4.4714413E0,2.737999E1,1.7077333E0,2.480171E0,1.9912703E0,2.1359886E1,6.0201025E0,5.6136947E0,1.5746192E1,4.562232E0,1.4578707E0,3.311224E0,2.3024707E0,1.0861771E0,1.4660015E1],"tree_param":{"num_deleted":"0","num_feature":"14","num_nodes":"19","size_leaf_vector":"1"}},{"base_weights":[-1.9126853E-8,-1.5830971E-1,2.7603893E-2,-1.6301896E-2,-5.4627873E-2,4.1308735E-2,-3.7126902E-2,1.3110453E-2,1.447912E-1,-1.18708216E-1,4.46753E-2,1.0631129E-1,1.1430595E-2,-5.0313126E-2,-2.67132E-3,1.6967965E-2,1.2074014E-1,-1.6655602E-2,9.304853E-3,1.1535633E-2,5.3702664E-2],"categories":[],"categories_nodes":[],"categories_segments":[],"categories_sizes":[],"default_left":[0,0,0,0,0,0,0,0,0,0,0,0,0,0,0,0,0,0,0,0,0],"id":21,"left_children":[1,3,5,-1,-1,7,-1,9,11,13,15,-1,-1,-1,-1,17,19,-1,-1,-1,-1],"loss_changes":[1.626928E-1,3.7738532E-3,7.0873804E-2,0E0,0E0,8.511619E-2,0E0,1.07383475E-1,1.2705313E-1,2.5480784E-2,4.1199077E-2,0E0,0E0,0E0,0E0,1.822356E-2,1.8603407E-2,0E0,0E0,0E0,0E0],"parents":[2147483647,0,0,1,1,2,2,5,5,7,7,8,8,9,9,10,10,15,15,16,16],"right_children":[2,4,6,-1,-1,8,-1,10,12,14,16,-1,-1,-1,-1,18,20,-1,-1,-1,-1],"split_conditions":[6.25E-2,-3.846154E-1,1.5E-1,-1.6301896E-2,-5.4627873E-2,1.25E-1,-3.7126902E-2,-1.671224E-1,9.6680427E-1,6.875E-1,-1.8749999E-2,1.0631129E-1,1.1430595E-2,-5.0313126E-2,-2.67132E-3,8.6908716E-1,2.4E1,-1.6655602E-2,9.304853E-3,1.1535633E-2,5.3702664E-2],"split_indices":[13,1,11,0,0,11,0,5,10,7,5,0,0,0,0,9,0,0,0,0,0],"split_type":[0,0,0,0,0,0,0,0,0,0,0,0,0,0,0,0,0,0,0,0,0],"sum_hessian":[3.5229755E1,4.527766E0,3.070199E1,1.4544253E0,3.0733407E0,2.8819616E1,1.8823752E0,2.3533567E1,5.2860475E0,4.0131965E0,1.9520372E1,1.0000429E0,4.2860045E0,2.4102218E0,1.6029747E0,1.5204911E1,4.31546E0,1.9891562E0,1.3215755E1,2.477129E0,1.8383313E0],"tree_param":{"num_deleted":"0","num_feature":"14","num_nodes":"21","size_leaf_vector":"1"}},{"base_weights":[-8.8663306E-8,-1.5266594E-1,2.6352076E-2,-5.326405E-2,-1.6552988E-2,3.622746E-2,-3.9662614E-2,1.4769187E-2,1.0034226E-1,-9.285097E-3,9.8360695E-2,7.972956E-3,-8.297265E-2,1.3062023E-2,5.1148593E-2,-2.4301289E-2,7.7363243E-3,-4.4834517E-2,6.5132664E-3,-2.2286586E-2,2.2708718E-2],"categories":[],"categories_nodes":[],"categories_segments":[],"categories_sizes":[],"default_left":[0,0,0,0,0,0,0,0,0,0,0,0,0,0,0,0,0,0,0,0,0],"id":22,"left_children":[1,3,5,-1,-1,7,-1,9,-1,11,13,15,17,19,-1,-1,-1,-1,-1,-1,-1],"loss_changes":[1.4930314E-1,3.4547E-3,5.434667E-2,0E0,0E0,1.907554E-1,0E0,6.0374487E-2,0E0,3.102673E-2,3.8963072E-2,3.420142E-2,3.5386E-2,2.832975E-2,0E0,0E0,0E0,0E0,0E0,0E0,0E0],"parents":[2147483647,0,0,1,1,2,2,5,5,7,7,9,9,10,10,11,11,12,12,13,13],"right_children":[2,4,6,-1,-1,8,-1,10,-1,12,14,16,18,20,-1,-1,-1,-1,-1,-1,-1],"split_conditions":[6.25E-2,-2.8339842E-1,5.7950587E0,-5.326405E-2,-1.6552988E-2,5.73061E0,-3.9662614E-2,3.125E-1,1.0034226E-1,-9.090909E-2,2.4E1,-2E-1,9.35066E-1,9.8621154E-1,5.1148593E-2,-2.4301289E-2,7.7363243E-3,-4.4834517E-2,6.5132664E-3,-2.2286586E-2,2.2708718E-2],"split_indices":[13,5,4,0,0,4,0,12,0,1,0,1,9,10,0,0,0,0,0,0,0],"split_type":[0,0,0,0,0,0,0,0,0,0,0,0,0,0,0,0,0,0,0,0,0],"sum_hessian":[3.511169E1,4.4629874E0,3.0648703E1,2.901328E0,1.5616596E0,2.9578062E1,1.0706397E0,2.857189E1,1.0061722E0,2.2877567E1,5.6943235E0,1.9258837E1,3.6187303E0,3.1502516E0,2.544072E0,2.6210065E0,1.6637829E1,1.95173E0,1.6670003E0,1.2378423E0,1.9124092E0],"tree_param":{"num_deleted":"0","num_feature":"14","num_nodes":"21","size_leaf_vector":"1"}},{"base_weights":[-2.7319283E-8,-1.6776471E-1,2.0290734E-2,-6.0944434E-2,-1.4531014E-2,6.486488E-2,5.868581E-3,2.9654942E-2,-8.869408E-2,7.216463E-2,2.6391319E-3,-1.3238212E-1,3.8272268E-3,3.306376E-2,1.0295696E-1,-2.0056976E-2,1.3711397E-2,-1.0129658E-2,-4.7164395E-2,-1.3632454E-2,1.793112E-2,6.756822E-3,4.8891176E-2,-7.0356587E-3,5.954041E-3],"categories":[],"categories_nodes":[],"categories_segments":[],"categories_sizes":[],"default_left":[0,0,0,0,0,0,0,0,0,0,0,0,0,0,0,0,0,0,0,0,0,0,0,0,0],"id":23,"left_children":[1,3,5,-1,-1,-1,7,9,11,13,15,17,-1,19,21,-1,23,-1,-1,-1,-1,-1,-1,-1,-1],"loss_changes":[1.2504622E-1,6.8951845E-3,9.1330364E-2,0E0,0E0,0E0,7.359967E-2,2.9622631E-2,3.0906029E-2,8.695319E-3,1.3928854E-2,6.1907545E-3,0E0,1.5086953E-2,2.1184027E-2,0E0,3.9805765E-3,0E0,0E0,0E0,0E0,0E0,0E0,0E0,0E0],"parents":[2147483647,0,0,1,1,2,2,6,6,7,7,8,8,9,9,10,10,11,11,13,13,14,14,16,16],"right_children":[2,4,6,-1,-1,-1,8,10,12,14,16,18,-1,20,22,-1,24,-1,-1,-1,-1,-1,-1,-1,-1],"split_conditions":[-3.860026E-1,8.8533413E-1,-3.7890625E-1,-6.0944434E-2,-1.4531014E-2,6.486488E-2,-1.6666667E-1,5.29184E-1,9.4271785E-1,3.125E-1,-1.6282552E-1,3.8266594E0,3.8272268E-3,5.2694327E-1,2.4E1,-2.0056976E-2,1E0,-1.0129658E-2,-4.7164395E-2,-1.3632454E-2,1.793112E-2,6.756822E-3,4.8891176E-2,-7.0356587E-3,5.954041E-3],"split_indices":[5,9,5,0,0,0,1,9,9,12,5,4,0,9,0,0,6,0,0,0,0,0,0,0,0],"split_type":[0,0,0,0,0,0,0,0,0,0,0,0,0,0,0,0,0,0,0,0,0,0,0,0,0],"sum_hessian":[3.4734295E1,2.9635482E0,3.1770746E1,1.7439836E0,1.2195644E0,1.2189746E0,3.0551771E1,2.4959772E1,5.592E0,9.0493355E0,1.5910436E1,3.6956584E0,1.8963414E0,4.9004216E0,4.1489143E0,1.4941448E0,1.4416291E1,1.2180774E0,2.477581E0,1.0658388E0,3.8345828E0,2.3605042E0,1.78841E0,1.6428326E0,1.27734585E1],"tree_param":{"num_deleted":"0","num_feature":"14","num_nodes":"25","size_leaf_vector":"1"}},{"base_weights":[-4.9404787E-9,-1.5327795E-1,1.8394096E-2,-5.620508E-2,-1.2938421E-2,6.1730668E-2,5.3323247E-3,2.7166324E-2,-8.3293155E-2,-1.7527321E-3,6.402816E-2,-4.6439722E-2,-2.1315213E-2,-2.0707088E-2,4.0835836E-3,-1.028542E-2,7.696591E-2,4.0545173E-2,-2.6962947E-2,2.5854131E-2,1.126673E-3,-1.6945567E-3,2.0356648E-2],"categories":[],"categories_nodes":[],"categories_segments":[],"categories_sizes":[],"default_left":[0,0,0,0,0,0,0,0,0,0,0,0,0,0,0,0,0,0,0,0,0,0,0],"id":24,"left_children":[1,3,5,-1,-1,-1,7,9,11,13,15,-1,17,-1,-1,-1,19,21,-1,-1,-1,-1,-1],"loss_changes":[1.0255096E-1,6.546639E-3,7.838588E-2,0E0,0E0,0E0,6.2996574E-2,2.7760556E-2,2.5285013E-2,1.6967878E-2,1.7175764E-2,0E0,2.3216588E-2,0E0,0E0,0E0,6.6975616E-3,4.3131667E-3,0E0,0E0,0E0,0E0,0E0],"parents":[2147483647,0,0,1,1,2,2,6,6,7,7,8,8,9,9,10,10,12,12,16,16,17,17],"right_children":[2,4,6,-1,-1,-1,8,10,12,14,16,-1,18,-1,-1,-1,20,22,-1,-1,-1,-1,-1],"split_conditions":[-3.860026E-1,8.8533413E-1,-3.7890625E-1,-5.620508E-2,-1.2938421E-2,6.1730668E-2,-1.6666667E-1,9.719213E-1,6.25E-1,-2E-1,8.444196E-1,-4.6439722E-2,5E-2,-2.0707088E-2,4.0835836E-3,-1.028542E-2,5.29184E-1,3.9780657E0,-2.6962947E-2,2.5854131E-2,1.126673E-3,-1.6945567E-3,2.0356648E-2],"split_indices":[5,9,5,0,0,0,1,10,7,1,2,0,11,0,0,0,9,4,0,0,0,0,0],"split_type":[0,0,0,0,0,0,0,0,0,0,0,0,0,0,0,0,0,0,0,0,0,0,0],"sum_hessian":[3.4373203E1,2.8972704E0,3.1475931E1,1.677506E0,1.2197644E0,1.0897429E0,3.0386189E1,2.493629E1,5.449898E0,1.4507352E1,1.0428939E1,1.8350706E0,3.6148272E0,2.0480506E0,1.2459301E1,1.0209382E0,9.408001E0,2.1150877E0,1.4997393E0,8.198895E0,1.2091055E0,1.0805603E0,1.0345274E0],"tree_param":{"num_deleted":"0","num_feature":"14","num_nodes":"23","size_leaf_vector":"1"}},{"base_weights":[-4.695007E-8,1.5566895E-2,-4.8052598E-2,4.040714E-3,4.747372E-2,-1.6475515E-2,8.3411604E-2,-3.939785E-2,-4.6925573E-3,1.5444232E-3,4.703415E-2,-9.984769E-2,1.0917248E-2,-2.1804353E-2,1.8361023E-2,-1.0870764E-2,-3.9211042E-2,5.267526E-3,-1.8451165E-2],"categories":[],"categories_nodes":[],"categories_segments":[],"categories_sizes":[],"default_left":[0,0,0,0,0,0,0,0,0,0,0,0,0,0,0,0,0,0,0],"id":25,"left_children":[1,3,-1,5,-1,7,9,-1,11,13,-1,15,17,-1,-1,-1,-1,-1,-1],"loss_changes":[9.010111E-2,5.3522706E-2,0E0,5.2666895E-2,0E0,3.4385428E-2,3.960888E-2,0E0,3.7473433E-2,2.2806274E-2,0E0,2.2328235E-3,1.1634226E-2,0E0,0E0,0E0,0E0,0E0,0E0],"parents":[2147483647,0,0,1,1,3,3,5,5,6,6,8,8,9,9,11,11,12,12],"right_children":[2,4,-1,6,-1,8,10,-1,12,14,-1,16,18,-1,-1,-1,-1,-1,-1],"split_conditions":[5.9644513E0,5.73061E0,-4.8052598E-2,3.125E-1,4.747372E-2,-3.7636718E-1,2.4E1,-3.939785E-2,3.4199631E0,9.8621154E-1,4.703415E-2,8.7736136E-1,5.0861583E0,-2.1804353E-2,1.8361023E-2,-1.0870764E-2,-3.9211042E-2,5.267526E-3,-1.8451165E-2],"split_indices":[4,4,0,12,0,5,0,0,4,10,0,9,4,0,0,0,0,0,0],"split_type":[0,0,0,0,0,0,0,0,0,0,0,0,0,0,0,0,0,0,0],"sum_hessian":[3.4135277E1,3.1934477E1,2.2008E0,3.0498966E1,1.4355109E0,2.486432E1,5.6346445E0,1.3695579E0,2.3494762E1,3.1456666E0,2.488978E0,2.5505435E0,2.094422E1,1.304445E0,1.8412217E0,1.5432875E0,1.0072559E0,1.987884E1,1.0653806E0],"tree_param":{"num_deleted":"0","num_feature":"14","num_nodes":"19","size_leaf_vector":"1"}},{"base_weights":[7.2902075E-8,1.2829381E-2,-5.3802323E-2,2.2392616E-2,-3.16846E-2,1.1200728E-2,4.8216403E-2,-6.5750536E-3,7.669746E-2,-8.527005E-2,5.9614345E-3,3.5292553E-3,4.2841658E-2,-3.7206195E-2,-3.1090823E-3,4.9388176E-3,-1.4284404E-2,-1.9381326E-2,1.7467314E-2],"categories":[],"categories_nodes":[],"categories_segments":[],"categories_sizes":[],"default_left":[0,1,0,1,0,0,0,0,0,0,0,0,0,0,0,0,0,0,0],"id":26,"left_children":[1,3,-1,5,-1,7,-1,9,11,13,15,17,-1,-1,-1,-1,-1,-1,-1],"loss_changes":[8.261635E-2,4.032242E-2,0E0,4.7480382E-2,0E0,3.6041997E-2,0E0,2.510246E-2,3.139492E-2,8.847825E-3,1.3408033E-2,1.924762E-2,0E0,0E0,0E0,0E0,0E0,0E0,0E0],"parents":[2147483647,0,0,1,1,3,3,5,5,7,7,8,8,9,9,10,10,11,11],"right_children":[2,4,-1,6,-1,8,-1,10,12,14,16,18,-1,-1,-1,-1,-1,-1,-1],"split_conditions":[4.8E1,5.9644513E0,-5.3802323E-2,5.73061E0,-3.16846E-2,3.125E-1,4.8216403E-2,3.4199631E0,2.4E1,6.25E-1,-7.692308E-2,9.8621154E-1,4.2841658E-2,-3.7206195E-2,-3.1090823E-3,4.9388176E-3,-1.4284404E-2,-1.9381326E-2,1.7467314E-2],"split_indices":[0,4,0,4,0,12,0,4,0,7,1,10,0,0,0,0,0,0,0],"split_type":[0,0,0,0,0,0,0,0,0,0,0,0,0,0,0,0,0,0,0],"sum_hessian":[3.3907307E1,3.251013E1,1.3971738E0,3.0831722E1,1.6784108E0,2.952397E1,1.3077509E0,2.3929209E1,5.594763E0,2.4909678E0,2.143824E1,3.1555712E0,2.4391913E0,1.2095627E0,1.2814051E0,1.8504042E1,2.9341981E0,1.3244863E0,1.8310848E0],"tree_param":{"num_deleted":"0","num_feature":"14","num_nodes":"19","size_leaf_vector":"1"}},{"base_weights":[-4.5003357E-8,-4.3398194E-2,1.4691532E-2,4.749098E-2,5.011498E-3,2.1294726E-2,-6.2572576E-2,-4.742836E-3,5.6027498E-2,-3.5966497E-2,4.074734E-3,7.378291E-3,-2.606796E-2,-6.5436447E-3,6.578293E-2,-1.1742364E-2,1.500751E-2,-4.6978574E-3,3.164601E-3,2.175207E-2,2.3083168E-3],"categories":[],"categories_nodes":[],"categories_segments":[],"categories_sizes":[],"default_left":[0,0,0,0,0,0,0,0,0,0,0,0,0,0,0,0,0,0,0,0,0],"id":27,"left_children":[1,-1,3,-1,5,7,9,11,13,-1,15,17,-1,-1,19,-1,-1,-1,-1,-1,-1],"loss_changes":[7.5854994E-2,0E0,4.4249374E-2,0E0,3.5874106E-2,2.381485E-2,2.4737332E-2,1.6378721E-2,9.966224E-3,0E0,9.706936E-3,1.2384388E-3,0E0,0E0,3.4388602E-3,0E0,0E0,0E0,0E0,0E0,0E0],"parents":[2147483647,0,0,2,2,4,4,5,5,6,6,7,7,8,8,10,10,11,11,14,14],"right_children":[2,-1,4,-1,6,8,10,12,14,-1,16,18,-1,-1,20,-1,-1,-1,-1,-1,-1],"split_conditions":[-4.0683594E-1,-4.3398194E-2,-3.829427E-1,4.749098E-2,-1.6666667E-1,9.719213E-1,-2.1302083E-1,9.5484143E-1,8.444196E-1,-3.5966497E-2,9.4271785E-1,6.875E-1,-2.606796E-2,-6.5436447E-3,5.29184E-1,-1.1742364E-2,1.500751E-2,-4.6978574E-3,3.164601E-3,2.175207E-2,2.3083168E-3],"split_indices":[5,0,5,0,1,10,5,10,2,0,9,7,0,0,9,0,0,0,0,0,0],"split_type":[0,0,0,0,0,0,0,0,0,0,0,0,0,0,0,0,0,0,0,0,0],"sum_hessian":[3.369156E1,2.290606E0,3.1400953E1,1.0133556E0,3.0387596E1,2.5039639E1,5.3479586E0,1.480469E1,1.0234948E1,2.4457774E0,2.9021811E0,1.3694307E1,1.1103832E0,1.0022202E0,9.232728E0,1.5719533E0,1.3302279E0,1.1800507E0,1.25142565E1,8.052416E0,1.1803119E0],"tree_param":{"num_deleted":"0","num_feature":"14","num_nodes":"21","size_leaf_vector":"1"}},{"base_weights":[-8.76615E-8,-1.2823951E-1,1.454889E-2,-1.0224894E-2,-4.556762E-2,2.3552805E-2,-2.4923502E-2,1.1632428E-2,5.4717187E-2,-4.0285536E-3,5.9957482E-2,4.3591885E-3,-2.4488995E-2,-8.625626E-3,8.4617466E-2,3.3213196E-3,-1.848634E-2,1.2164336E-2,3.3961177E-2],"categories":[],"categories_nodes":[],"categories_segments":[],"categories_sizes":[],"default_left":[0,0,0,0,0,0,0,0,0,0,0,0,0,0,0,0,0,0,0],"id":28,"left_children":[1,3,5,-1,-1,7,-1,9,-1,11,13,15,-1,-1,17,-1,-1,-1,-1],"loss_changes":[6.6225246E-2,2.8775483E-3,2.9978823E-2,0E0,0E0,5.461585E-2,0E0,2.2145424E-2,0E0,1.5193362E-2,1.8066915E-2,1.0212876E-2,0E0,0E0,2.774328E-3,0E0,0E0,0E0,0E0],"parents":[2147483647,0,0,1,1,2,2,5,5,7,7,9,9,10,10,11,11,14,14],"right_children":[2,4,6,-1,-1,8,-1,10,-1,12,14,16,-1,-1,18,-1,-1,-1,-1],"split_conditions":[-3.860026E-1,-3.846154E-1,1.6666667E-1,-1.0224894E-2,-4.556762E-2,1.1111111E-1,-2.4923502E-2,8.656216E-1,5.4717187E-2,9.441903E-1,9.719213E-1,5.0861583E0,-2.4488995E-2,-8.625626E-3,2.4E1,3.3213196E-3,-1.848634E-2,1.2164336E-2,3.3961177E-2],"split_indices":[5,1,1,0,0,1,0,2,0,9,10,4,0,0,0,0,0,0,0],"split_type":[0,0,0,0,0,0,0,0,0,0,0,0,0,0,0,0,0,0,0],"sum_hessian":[3.34952E1,2.616672E0,3.0878529E1,1.015427E0,1.6012449E0,2.896583E1,1.9126985E0,2.7942081E1,1.023748E0,2.1795366E1,6.1467147E0,2.0521116E1,1.2742498E0,1.3009294E0,4.845785E0,1.938171E1,1.1394063E0,2.858094E0,1.9876914E0],"tree_param":{"num_deleted":"0","num_feature":"14","num_nodes":"19","size_leaf_vector":"1"}},{"base_weights":[4.642824E-8,1.074277E-2,-4.697019E-2,-4.672868E-3,6.3011594E-2,-6.237738E-2,1.951307E-2,-4.5467047E-3,8.310432E-2,-5.4159923E-3,-5.475802E-2,1.04350135E-1,-6.060879E-4,1.3522013E-2,3.2199815E-2,-3.404314E-2,1.4297518E-2,3.6321415E-3,5.314349E-2,-2.8527917E-2,1.6178293E-2,1.8013885E-3,2.0258764E-2],"categories":[],"categories_nodes":[],"categories_segments":[],"categories_sizes":[],"default_left":[0,0,0,0,0,0,0,0,0,0,0,0,0,0,0,0,0,0,0,0,0,0,0],"id":29,"left_children":[1,3,-1,5,7,9,11,-1,13,15,-1,17,19,-1,-1,-1,-1,-1,-1,-1,21,-1,-1],"loss_changes":[5.9463095E-2,2.6951687E-2,0E0,3.817286E-2,1.3202364E-2,5.4165173E-2,3.3211257E-2,0E0,8.7811425E-4,4.26736E-2,0E0,2.2891622E-2,2.8010452E-2,0E0,0E0,0E0,0E0,0E0,0E0,0E0,7.4459603E-3,0E0,0E0],"parents":[2147483647,0,0,1,1,3,3,4,4,5,5,6,6,8,8,9,9,11,11,12,12,20,20],"right_children":[2,4,-1,6,8,10,12,-1,14,16,-1,18,20,-1,-1,-1,-1,-1,-1,-1,22,-1,-1],"split_conditions":[4.8E1,8.526222E-1,-4.697019E-2,1E0,9.719213E-1,5.29184E-1,5E-2,-4.5467047E-3,2.4E1,8.444196E-1,-5.475802E-2,1.1111111E-1,-1.671224E-1,1.3522013E-2,3.2199815E-2,-3.404314E-2,1.4297518E-2,3.6321415E-3,5.314349E-2,-2.8527917E-2,9.6406907E-1,1.8013885E-3,2.0258764E-2],"split_indices":[0,2,0,6,10,9,3,0,0,2,0,1,5,0,0,0,0,0,0,0,10,0,0],"split_type":[0,0,0,0,0,0,0,0,0,0,0,0,0,0,0,0,0,0,0,0,0,0,0],"sum_hessian":[3.335346E1,3.2083466E1,1.2699918E0,2.5479422E1,6.6040435E0,7.058849E0,1.8420572E1,1.4006745E0,5.203369E0,5.497586E0,1.5612632E0,2.728523E0,1.569205E1,3.1380198E0,2.065349E0,1.4359232E0,4.061662E0,1.7179353E0,1.0105876E0,1.6632553E0,1.4028795E1,1.264124E1,1.3875546E0],"tree_param":{"num_deleted":"0","num_feature":"14","num_nodes":"23","size_leaf_vector":"1"}},{"base_weights":[4.666523E-8,-1.2401447E-1,1.2081333E-2,-4.4593837E-2,-1.09074265E-2,1.9902991E-2,-2.1570325E-2,8.847876E-3,4.4837885E-2,-7.6845246E-3,5.789975E-2,-2.3697097E-2,1.245963E-3,-4.2414363E-3,7.675685E-2,-1.663734E-2,2.5283124E-3,1.1577772E-2,2.988929E-2],"categories":[],"categories_nodes":[],"categories_segments":[],"categories_sizes":[],"default_left":[0,0,0,0,0,0,0,0,0,0,0,0,0,0,0,0,0,0,0],"id":30,"left_children":[1,3,5,-1,-1,7,-1,9,-1,11,13,-1,15,-1,17,-1,-1,-1,-1],"loss_changes":[5.2657895E-2,1.3318397E-3,2.246848E-2,0E0,0E0,4.176122E-2,0E0,2.37829E-2,0E0,1.4367125E-2,1.1099065E-2,0E0,8.977536E-3,0E0,1.3909824E-3,0E0,0E0,0E0,0E0],"parents":[2147483647,0,0,1,1,2,2,5,5,7,7,9,9,10,10,12,12,14,14],"right_children":[2,4,6,-1,-1,8,-1,10,-1,12,14,-1,16,-1,18,-1,-1,-1,-1],"split_conditions":[-4.0683594E-1,8.655799E-1,1.6666667E-1,-4.4593837E-2,-1.09074265E-2,9.090909E-2,-2.1570325E-2,8.526222E-1,4.4837885E-2,3.5644438E0,9.721088E-1,-2.3697097E-2,-2.5E-1,-4.2414363E-3,2.4E1,-1.663734E-2,2.5283124E-3,1.1577772E-2,2.988929E-2],"split_indices":[5,9,1,0,0,1,0,2,0,4,10,0,1,0,0,0,0,0,0],"split_type":[0,0,0,0,0,0,0,0,0,0,0,0,0,0,0,0,0,0,0],"sum_hessian":[3.314615E1,2.11994E0,3.1026209E1,1.1117527E0,1.0081872E0,2.9080793E1,1.9454145E0,2.7778719E1,1.302075E0,2.1407045E1,6.371673E0,1.509486E0,1.989756E1,1.3737862E0,4.997887E0,1.481136E0,1.8416424E1,2.8799727E0,2.1179144E0],"tree_param":{"num_deleted":"0","num_feature":"14","num_nodes":"19","size_leaf_vector":"1"}},{"base_weights":[-8.638636E-8,9.934474E-3,-4.4281997E-2,-4.3020165E-3,5.7902377E-2,-5.136541E-2,1.4978889E-2,2.9566256E-2,2.9866306E-2,-3.0481766E-4,-4.966605E-2,9.6420206E-2,-4.038006E-3,-9.864734E-3,5.09362E-2,-2.8679578E-2,1.3058451E-2,3.1803038E-3,4.8448186E-2,-2.530651E-2,9.856977E-3,-2.9991503E-4,2.9820602E-2,6.9314E-4,1.4382673E-2],"categories":[],"categories_nodes":[],"categories_segments":[],"categories_sizes":[],"default_left":[0,0,0,0,0,0,0,0,0,0,0,0,0,0,0,0,0,0,0,0,0,0,0,0,0],"id":31,"left_children":[1,3,-1,5,7,9,11,13,-1,15,-1,17,19,-1,21,-1,-1,-1,-1,-1,23,-1,-1,-1,-1],"loss_changes":[5.1356744E-2,2.2657381E-2,0E0,2.4575302E-2,6.0018282E-3,4.571927E-2,3.041136E-2,9.592637E-3,0E0,3.1003872E-2,0E0,1.9005205E-2,1.9440647E-2,0E0,1.2213387E-2,0E0,0E0,0E0,0E0,0E0,4.232263E-3,0E0,0E0,0E0,0E0],"parents":[2147483647,0,0,1,1,3,3,4,4,5,5,6,6,7,7,9,9,11,11,12,12,14,14,20,20],"right_children":[2,4,-1,6,8,10,12,14,-1,16,-1,18,20,-1,22,-1,-1,-1,-1,-1,24,-1,-1,-1,-1],"split_conditions":[4.8E1,8.526222E-1,-4.4281997E-2,1E0,1.5885814E0,5.29184E-1,5E-2,-1.8749999E-2,2.9866306E-2,8.444196E-1,-4.966605E-2,1.1111111E-1,-1.7083333E-1,-9.864734E-3,2.4E1,-2.8679578E-2,1.3058451E-2,3.1803038E-3,4.8448186E-2,-2.530651E-2,9.6406907E-1,-2.9991503E-4,2.9820602E-2,6.9314E-4,1.4382673E-2],"split_indices":[0,2,0,6,4,9,3,5,0,2,0,1,5,0,0,0,0,0,0,0,10,0,0,0,0],"split_type":[0,0,0,0,0,0,0,0,0,0,0,0,0,0,0,0,0,0,0,0,0,0,0,0,0],"sum_hessian":[3.3022182E1,3.1813683E1,1.2085022E0,2.5234575E1,6.579106E0,6.850038E0,1.8384539E1,4.932996E0,1.64611E0,5.4262805E0,1.4237578E0,2.709719E0,1.5674819E1,1.1203395E0,3.8126562E0,1.3375175E0,4.0887628E0,1.6701E0,1.0396188E0,1.5639334E0,1.4110886E1,2.3132029E0,1.4994534E0,1.2662504E1,1.4483813E0],"tree_param":{"num_deleted":"0","num_feature":"14","num_nodes":"25","size_leaf_vector":"1"}},{"base_weights":[7.843219E-8,9.713798E-3,-4.416657E-2,-4.7031287E-3,6.858919E-2,-4.9262084E-2,1.5418548E-2,9.42234E-3,3.583345E-2,-1.4057474E-3,-4.5261748E-2,9.836989E-2,-5.892578E-3,-1.0653955E-2,1.2726673E-2,-2.954767E-2,1.1532328E-2,5.8706254E-3,4.49745E-2,-2.4273472E-2,7.005891E-3,1.0778194E-4,1.2275728E-2],"categories":[],"categories_nodes":[],"categories_segments":[],"categories_sizes":[],"default_left":[0,0,0,0,0,0,0,0,0,0,0,0,0,0,0,0,0,0,0,0,0,0,0],"id":32,"left_children":[1,3,-1,5,7,9,11,13,-1,15,-1,17,19,-1,-1,-1,-1,-1,-1,-1,21,-1,-1],"loss_changes":[5.0135076E-2,2.8237786E-2,0E0,2.528555E-2,1.8533157E-2,4.2327516E-2,3.523936E-2,7.5945235E-3,0E0,3.0698236E-2,0E0,1.3573632E-2,1.6573649E-2,0E0,0E0,0E0,0E0,0E0,0E0,0E0,3.3744536E-3,0E0,0E0],"parents":[2147483647,0,0,1,1,3,3,4,4,5,5,6,6,7,7,9,9,11,11,12,12,20,20],"right_children":[2,4,-1,6,8,10,12,14,-1,16,-1,18,20,-1,-1,-1,-1,-1,-1,-1,22,-1,-1],"split_conditions":[4.8E1,3.125E-1,-4.416657E-2,1E0,2.4E1,5.29184E-1,5E-2,9.8621154E-1,3.583345E-2,8.444196E-1,-4.5261748E-2,1.1111111E-1,-1.7083333E-1,-1.0653955E-2,1.2726673E-2,-2.954767E-2,1.1532328E-2,5.8706254E-3,4.49745E-2,-2.4273472E-2,9.6406907E-1,1.0778194E-4,1.2275728E-2],"split_indices":[0,12,0,6,0,9,3,10,0,2,0,1,5,0,0,0,0,0,0,0,10,0,0],"split_type":[0,0,0,0,0,0,0,0,0,0,0,0,0,0,0,0,0,0,0,0,0,0,0],"sum_hessian":[3.3057697E1,3.1887758E1,1.1699378E0,2.635442E1,5.5333385E0,7.7481422E0,1.8606277E1,3.1055417E0,2.4277968E0,5.9565625E0,1.7915795E0,3.064017E0,1.5542261E1,1.2827195E0,1.8228222E0,1.3050498E0,4.651513E0,1.7572346E0,1.3067825E0,1.5066206E0,1.4035641E1,1.2580578E1,1.4550623E0],"tree_param":{"num_deleted":"0","num_feature":"14","num_nodes":"23","size_leaf_vector":"1"}},{"base_weights":[2.6178984E-8,-3.4897793E-2,1.0822451E-2,5.5564035E-2,-9.428369E-3,-3.1065772E-4,1.5359531E-1,-8.2373135E-2,7.9725E-3,-4.925664E-2,8.356893E-3,1.599871E-2,5.522629E-2,9.646093E-3,-3.8612377E-2,-3.8890333E-3,4.3851763E-2,3.4210368E-3,-2.5376618E-2,-2.1444378E-2,1.7498545E-3,-5.993855E-3,3.2914348E-2],"categories":[],"categories_nodes":[],"categories_segments":[],"categories_sizes":[],"default_left":[0,0,0,0,0,0,0,0,0,0,0,0,0,0,0,0,0,0,0,0,0,0,0],"id":33,"left_children":[1,-1,3,5,7,9,11,13,15,17,-1,-1,-1,-1,-1,19,21,-1,-1,-1,-1,-1,-1],"loss_changes":[4.393762E-2,0E0,2.945431E-2,5.5337846E-2,2.9642565E-2,1.1612076E-2,1.3929382E-3,2.7946599E-2,8.405362E-3,7.5535197E-3,0E0,0E0,0E0,0E0,0E0,1.0576415E-2,2.2745816E-2,0E0,0E0,0E0,0E0,0E0,0E0],"parents":[2147483647,0,0,2,2,3,3,4,4,5,5,6,6,7,7,8,8,9,9,15,15,16,16],"right_children":[2,-1,4,6,8,10,12,14,16,18,-1,-1,-1,-1,-1,20,22,-1,-1,-1,-1,-1,-1],"split_conditions":[-4.0683594E-1,-3.4897793E-2,5E-2,8.6908716E-1,-1.6425781E-1,1E-1,7.692308E-2,6.010563E-1,3.125E-1,2.4295042E0,8.356893E-3,1.599871E-2,5.522629E-2,9.646093E-3,-3.8612377E-2,8.735823E-1,2.4E1,3.4210368E-3,-2.5376618E-2,-2.1444378E-2,1.7498545E-3,-5.993855E-3,3.2914348E-2],"split_indices":[5,0,3,9,5,11,1,9,12,4,0,0,0,0,0,9,0,0,0,0,0,0,0],"split_type":[0,0,0,0,0,0,0,0,0,0,0,0,0,0,0,0,0,0,0,0,0,0,0],"sum_hessian":[3.2900784E1,1.9706315E0,3.0930151E1,9.094104E0,2.1836048E1,6.4274783E0,2.6666257E0,3.4865427E0,1.8349504E1,2.0742676E0,4.3532104E0,1.2628835E0,1.4037423E0,1.0924262E0,2.3941166E0,1.4460524E1,3.8889804E0,1.0127577E0,1.0615101E0,1.019531E0,1.3440993E1,2.328728E0,1.5602524E0],"tree_param":{"num_deleted":"0","num_feature":"14","num_nodes":"23","size_leaf_vector":"1"}},{"base_weights":[-2.772545E-8,-3.7589848E-2,9.913156E-3,1.6980164E-2,-2.4192212E-2,-1.7765556E-2,2.2199906E-2,5.38302E-2,7.0297783E-3,3.634713E-3,1.5318987E-1,-1.6913159E-2,1.5929045E-2,8.436764E-3,-2.1501241E-2,1.2774988E-2,5.5630293E-2,-6.2434794E-3,6.905594E-3],"categories":[],"categories_nodes":[],"categories_segments":[],"categories_sizes":[],"default_left":[0,0,0,0,0,0,0,0,0,0,0,0,0,0,0,0,0,0,0],"id":34,"left_children":[1,-1,3,5,-1,-1,7,9,11,13,15,-1,17,-1,-1,-1,-1,-1,-1],"loss_changes":[4.306665E-2,0E0,2.1930719E-2,1.3497381E-2,0E0,0E0,1.3725743E-2,4.6213236E-2,1.2756907E-2,1.539336E-2,3.2420605E-3,0E0,5.4825973E-3,0E0,0E0,0E0,0E0,0E0,0E0],"parents":[2147483647,0,0,2,2,3,3,6,6,7,7,8,8,9,9,10,10,12,12],"right_children":[2,-1,4,6,-1,-1,8,10,12,14,16,-1,18,-1,-1,-1,-1,-1,-1],"split_conditions":[-4E-1,-3.7589848E-2,2.3076923E-1,-4.0683594E-1,-2.4192212E-2,-1.7765556E-2,5E-2,9.085159E-1,-1.7791668E-1,5.625E-1,1.1111111E-1,-1.6913159E-2,2.4E1,8.436764E-3,-2.1501241E-2,1.2774988E-2,5.5630293E-2,-6.2434794E-3,6.905594E-3],"split_indices":[8,0,1,5,0,0,3,9,5,7,1,0,0,0,0,0,0,0,0],"split_type":[0,0,0,0,0,0,0,0,0,0,0,0,0,0,0,0,0,0,0],"sum_hessian":[3.2671993E1,1.5419947E0,3.1129997E1,2.963009E1,1.4999074E0,1.2363621E0,2.8393728E1,8.377625E0,2.0016102E1,6.2544985E0,2.123127E0,1.8069077E0,1.8209194E1,5.1925426E0,1.061956E0,1.0030502E0,1.1200769E0,2.6322901E0,1.5576905E1],"tree_param":{"num_deleted":"0","num_feature":"14","num_nodes":"19","size_leaf_vector":"1"}},{"base_weights":[8.1980176E-8,-1.00732185E-1,1.5084483E-2,1.6359413E-2,-5.030545E-2,2.0882528E-2,-1.5943399E-2,2.7270006E-2,-1.7009858E-2,2.020084E-2,3.1548217E-2,3.05213E-2,-2.5479952E-2,4.7353655E-3,1.4126352E-2],"categories":[],"categories_nodes":[],"categories_segments":[],"categories_sizes":[],"default_left":[0,0,0,0,0,0,0,0,0,0,0,0,0,0,0],"id":35,"left_children":[1,3,5,-1,-1,7,-1,9,-1,11,-1,13,-1,-1,-1],"loss_changes":[5.257961E-2,5.5994663E-2,1.3015902E-2,0E0,0E0,1.5648313E-2,0E0,1.2724752E-2,0E0,3.0761525E-2,0E0,5.2079726E-3,0E0,0E0,0E0],"parents":[2147483647,0,0,1,1,2,2,5,5,7,7,9,9,11,11],"right_children":[2,4,6,-1,-1,8,-1,10,-1,12,-1,14,-1,-1,-1],"split_conditions":[-3.7096354E-1,9.734094E-1,1.6666667E-1,1.6359413E-2,-5.030545E-2,1E-1,-1.5943399E-2,1.0239242E0,-1.7009858E-2,-9.090909E-2,3.1548217E-2,9.719213E-1,-2.5479952E-2,4.7353655E-3,1.4126352E-2],"split_indices":[5,10,1,0,0,13,0,10,0,1,0,10,0,0,0],"split_type":[0,0,0,0,0,0,0,0,0,0,0,0,0,0,0],"sum_hessian":[3.260355E1,3.5068977E0,2.9096651E1,1.1125082E0,2.3943896E0,2.7457293E1,1.6393585E0,2.5967813E1,1.4894785E0,2.49617E1,1.0061134E0,2.3376629E1,1.5850707E0,1.3405011E1,9.971619E0],"tree_param":{"num_deleted":"0","num_feature":"14","num_nodes":"15","size_leaf_vector":"1"}},{"base_weights":[-2.7577332E-8,-3.1517126E-2,1.1225053E-2,4.97376E-2,-6.5480666E-3,5.631333E-3,1.2306392E-1,-8.7790936E-2,8.084621E-3,2.7572896E-2,-1.8090917E-2,1.0623448E-2,4.5980547E-2,-7.50587E-3,-3.1071272E-2,-3.5989562E-3,4.294817E-2,-3.086258E-4,1.0203263E-2,6.1980453E-3,-2.1039907E-2,-7.411898E-3,3.3451375E-2,6.394025E-4,8.563675E-3],"categories":[],"categories_nodes":[],"categories_segments":[],"categories_sizes":[],"default_left":[0,0,0,0,0,0,0,0,0,0,0,0,0,0,0,0,0,0,0,0,0,0,0,0,0],"id":36,"left_children":[1,-1,3,5,7,9,11,13,15,17,-1,-1,-1,-1,-1,19,21,-1,-1,23,-1,-1,-1,-1,-1],"loss_changes":[4.0848434E-2,0E0,2.1746647E-2,3.1642668E-2,2.7216064E-2,1.2210574E-2,4.3874905E-3,8.629542E-4,8.223545E-3,1.1686673E-3,0E0,0E0,0E0,0E0,0E0,1.070747E-2,2.617557E-2,0E0,0E0,1.2710956E-3,0E0,0E0,0E0,0E0,0E0],"parents":[2147483647,0,0,2,2,3,3,4,4,5,5,6,6,7,7,8,8,9,9,15,15,16,16,19,19],"right_children":[2,-1,4,6,8,10,12,14,16,18,-1,-1,-1,-1,-1,20,22,-1,-1,24,-1,-1,-1,-1,-1],"split_conditions":[-3.860026E-1,-3.1517126E-2,5E-2,8.6908716E-1,-1.7791668E-1,5.625E-1,7.692308E-2,8.213488E-1,3.125E-1,1E-1,-1.8090917E-2,1.0623448E-2,4.5980547E-2,-7.50587E-3,-3.1071272E-2,-1.22851565E-1,2.4E1,-3.086258E-4,1.0203263E-2,9.6680427E-1,-2.1039907E-2,-7.411898E-3,3.3451375E-2,6.394025E-4,8.563675E-3],"split_indices":[5,0,3,9,5,7,1,9,12,11,0,0,0,0,0,5,0,0,0,10,0,0,0,0,0],"split_type":[0,0,0,0,0,0,0,0,0,0,0,0,0,0,0,0,0,0,0,0,0,0,0,0,0],"sum_hessian":[3.2638638E1,2.3437767E0,3.029486E1,8.9982E0,2.129666E1,6.2909503E0,2.7072499E0,2.4872777E0,1.8809383E1,5.1567173E0,1.1342331E0,1.2505609E0,1.456689E0,1.0190619E0,1.4682157E0,1.4759804E1,4.049579E0,1.1018399E0,4.0548773E0,1.3655852E1,1.1039515E0,2.3601243E0,1.6894549E0,1.2480144E1,1.1757079E0],"tree_param":{"num_deleted":"0","num_feature":"14","num_nodes":"25","size_leaf_vector":"1"}},{"base_weights":[-3.014813E-8,8.666136E-3,-4.0610276E-2,-4.4321846E-3,6.134343E-2,3.354288E-2,-2.7682474E-2,-1.7332798E-2,3.8086582E-2,-1.7342433E-2,9.436122E-2,-3.2418042E-2,-1.3421252E-2,-2.623017E-2,1.14691835E-2,-3.3164263E-2,6.760246E-3,1.4860979E-3,4.3884523E-2,1.2506818E-2,-1.9950848E-2,-4.432197E-3,-1.32489735E-2],"categories":[],"categories_nodes":[],"categories_segments":[],"categories_sizes":[],"default_left":[0,0,0,0,0,0,0,0,0,0,0,0,0,0,0,0,0,0,0,0,0,0,0],"id":37,"left_children":[1,3,-1,5,7,9,11,13,-1,15,17,-1,19,-1,-1,-1,-1,-1,-1,-1,21,-1,-1],"loss_changes":[4.0634047E-2,2.273335E-2,0E0,2.4770875E-2,3.6012135E-2,3.4771264E-2,1.8376807E-2,1.8371092E-2,0E0,2.729694E-2,2.263707E-2,0E0,6.5289577E-3,0E0,0E0,0E0,0E0,0E0,0E0,0E0,1.2065633E-3,0E0,0E0],"parents":[2147483647,0,0,1,1,3,3,4,4,5,5,6,6,7,7,9,9,10,10,12,12,20,20],"right_children":[2,4,-1,6,8,10,12,14,-1,16,18,-1,20,-1,-1,-1,-1,-1,-1,-1,22,-1,-1],"split_conditions":[4.8E1,3.125E-1,-4.0610276E-2,-2.1223958E-1,2.4E1,1E0,6.25E-1,9.8621154E-1,3.8086582E-2,8.444196E-1,1.1111111E-1,-3.2418042E-2,9.1676825E-1,-2.623017E-2,1.14691835E-2,-3.3164263E-2,6.760246E-3,1.4860979E-3,4.3884523E-2,1.2506818E-2,9.629494E-1,-4.432197E-3,-1.32489735E-2],"split_indices":[0,12,0,5,0,6,7,10,0,2,1,0,9,0,0,0,0,0,0,0,10,0,0],"split_type":[0,0,0,0,0,0,0,0,0,0,0,0,0,0,0,0,0,0,0,0,0,0,0],"sum_hessian":[3.263766E1,3.1553595E1,1.0840653E0,2.6003605E1,5.5499897E0,9.706743E0,1.6296864E1,2.8583379E0,2.6916518E0,5.674156E0,4.032587E0,1.4646647E0,1.4832198E1,1.0102175E0,1.8481203E0,1.1691692E0,4.504987E0,1.8839012E0,2.1486857E0,1.000782E0,1.3831416E1,1.2721593E1,1.1098235E0],"tree_param":{"num_deleted":"0","num_feature":"14","num_nodes":"23","size_leaf_vector":"1"}},{"base_weights":[-4.0132033E-8,-3.8440015E-2,1.0835729E-1,6.764898E-3,-6.903779E-2,4.0771835E-2,-7.686269E-3,2.7863218E-2,-3.1160872E-2,-1.3528652E-1,-4.2169977E-2,6.5155313E-3,4.9611785E-2,-9.064848E-3,-5.0356854E-2,-7.0998825E-2,2.3606861E-2,1.2582205E-2,-2.4765966E-2,2.0494376E-4,2.8574482E-2,4.130822E-3,-2.6509084E-2],"categories":[],"categories_nodes":[],"categories_segments":[],"categories_sizes":[],"default_left":[0,0,0,0,0,0,0,0,0,0,0,0,0,0,0,0,0,0,0,0,0,0,0],"id":38,"left_children":[1,3,5,7,9,-1,-1,11,-1,13,15,17,19,-1,-1,21,-1,-1,-1,-1,-1,-1,-1],"loss_changes":[1.4439079E-1,3.5859745E-2,3.6986336E-2,2.9129181E-2,2.1615043E-2,0E0,0E0,4.4253273E-3,0E0,8.533761E-3,4.8696928E-2,2.3380479E-2,1.0910102E-2,0E0,0E0,1.669554E-2,0E0,0E0,0E0,0E0,0E0,0E0,0E0],"parents":[2147483647,0,0,1,1,2,2,3,3,4,4,7,7,9,9,10,10,11,11,12,12,15,15],"right_children":[2,4,6,8,10,-1,-1,12,-1,14,16,18,20,-1,-1,22,-1,-1,-1,-1,-1,-1,-1],"split_conditions":[9.5767635E-1,5.29184E-1,9.6383125E-1,5.0861583E0,8.6908716E-1,4.0771835E-2,-7.686269E-3,3.125E-1,-3.1160872E-2,3.8309524E0,5.1160817E0,5.625E-1,2.4E1,-9.064848E-3,-5.0356854E-2,4.094914E0,2.3606861E-2,1.2582205E-2,-2.4765966E-2,2.0494376E-4,2.8574482E-2,4.130822E-3,-2.6509084E-2],"split_indices":[9,9,9,4,9,0,0,12,0,4,4,7,0,0,0,4,0,0,0,0,0,0,0],"split_type":[0,0,0,0,0,0,0,0,0,0,0,0,0,0,0,0,0,0,0,0,0,0,0],"sum_hessian":[3.2665554E1,2.4588118E1,8.0774355E0,1.0239408E1,1.434871E1,6.687873E0,1.3895621E0,9.227792E0,1.0116163E0,2.975838E0,1.1372872E1,5.3126507E0,3.9151404E0,1.1603296E0,1.8155084E0,9.515639E0,1.8572327E0,4.179476E0,1.133175E0,2.3792372E0,1.5359032E0,1.6530641E0,7.862575E0],"tree_param":{"num_deleted":"0","num_feature":"14","num_nodes":"23","size_leaf_vector":"1"}},{"base_weights":[5.662589E-8,-2.4354052E-2,6.736233E-2,-1.1004012E-2,-3.3605352E-2,2.6647648E-2,-8.881738E-3,2.1559464E-2,-2.8140461E-2,3.9280714E-3,1.9116387E-2,5.042338E-3,-4.8571497E-2,-1.24421045E-2,2.7622439E-2,-3.947276E-2,-1.805966E-2,-2.5997749E-3,1.8001819E-2,-1.32867545E-2,2.6411587E-2],"categories":[],"categories_nodes":[],"categories_segments":[],"categories_sizes":[],"default_left":[0,0,0,0,0,0,0,0,0,0,0,0,0,0,0,0,0,0,0,0,0],"id":39,"left_children":[1,3,5,7,-1,-1,-1,9,11,13,-1,-1,15,-1,17,-1,19,-1,-1,-1,-1],"loss_changes":[5.5847667E-2,2.802832E-2,2.1443002E-2,1.333363E-2,0E0,0E0,0E0,6.0163913E-3,1.4937793E-2,8.686705E-3,0E0,0E0,2.5049094E-2,0E0,6.638253E-3,0E0,2.9160364E-2,0E0,0E0,0E0,0E0],"parents":[2147483647,0,0,1,1,2,2,3,3,7,7,8,8,9,9,12,12,14,14,16,16],"right_children":[2,4,6,8,-1,-1,-1,10,12,14,-1,-1,16,-1,18,-1,20,-1,-1,-1,-1],"split_conditions":[9.5767635E-1,1.6666667E-1,9.6383125E-1,4.094914E0,-3.3605352E-2,2.6647648E-2,-8.881738E-3,3.5644438E0,5.625E-1,3.125E-1,1.9116387E-2,5.042338E-3,1E0,-1.24421045E-2,2.4E1,-3.947276E-2,5.73061E0,-2.5997749E-3,1.8001819E-2,-1.32867545E-2,2.6411587E-2],"split_indices":[9,1,9,4,0,0,0,4,7,12,0,0,6,0,0,0,4,0,0,0,0],"split_type":[0,0,0,0,0,0,0,0,0,0,0,0,0,0,0,0,0,0,0,0,0],"sum_hessian":[3.204208E1,2.4002642E1,8.039436E0,2.1807215E1,2.1954265E0,6.651213E0,1.3882228E0,7.4300966E0,1.4377119E1,6.0099845E0,1.4201119E0,4.54827E0,9.828849E0,1.8036249E0,4.20636E0,1.7515758E0,8.077273E0,2.3289685E0,1.8773912E0,6.9433174E0,1.1339558E0],"tree_param":{"num_deleted":"0","num_feature":"14","num_nodes":"21","size_leaf_vector":"1"}},{"base_weights":[-8.395514E-8,-2.3756683E-2,5.7502557E-2,-5.0594234E-3,-8.145479E-2,-2.5519693E-2,8.311399E-2,1.9507553E-2,-3.5610683E-2,-1.3019988E-1,4.5717144E-3,1.3806564E-2,5.004283E-2,-6.764675E-3,3.1654544E-2,-2.2784537E-2,-5.716493E-3,-7.000098E-3,-4.8202842E-2,-2.6947377E-2,2.8954506E-2,1.5959125E-2,1.7954184E-2,8.382694E-3,-6.0253106E-3],"categories":[],"categories_nodes":[],"categories_segments":[],"categories_sizes":[],"default_left":[0,0,0,0,0,0,0,0,0,0,0,0,0,0,0,0,0,0,0,0,0,0,0,0,0],"id":40,"left_children":[1,3,5,7,9,-1,11,13,15,17,19,-1,-1,-1,21,-1,-1,-1,-1,-1,-1,-1,23,-1,-1],"loss_changes":[4.634E-2,2.5484238E-2,4.328212E-2,1.5102313E-2,2.495369E-2,0E0,1.9992597E-2,6.4794268E-3,4.5029987E-3,8.437298E-3,3.5288624E-2,0E0,0E0,0E0,1.7521996E-3,0E0,0E0,0E0,0E0,0E0,0E0,0E0,3.265E-3,0E0,0E0],"parents":[2147483647,0,0,1,1,2,2,3,3,4,4,6,6,7,7,8,8,9,9,10,10,14,14,22,22],"right_children":[2,4,6,8,10,-1,12,14,16,18,20,-1,-1,-1,22,-1,-1,-1,-1,-1,-1,-1,24,-1,-1],"split_conditions":[9.44089E-1,-1.6666667E-1,-2.1302083E-1,6.25E-1,8.727402E-1,-2.5519693E-2,-1.6425781E-1,9.8067653E-1,-1.8085937E-1,4.114152E0,5.1160817E0,1.3806564E-2,5.004283E-2,-6.764675E-3,2.4E1,-2.2784537E-2,-5.716493E-3,-7.000098E-3,-4.8202842E-2,-2.6947377E-2,2.8954506E-2,1.5959125E-2,8.517033E-1,8.382694E-3,-6.0253106E-3],"split_indices":[9,1,5,7,9,0,5,10,5,4,4,0,0,0,0,0,0,0,0,0,0,0,2,0,0],"split_type":[0,0,0,0,0,0,0,0,0,0,0,0,0,0,0,0,0,0,0,0,0,0,0,0,0],"sum_hessian":[3.1922197E1,2.300485E1,8.917348E0,1.8196049E1,4.8088007E0,1.0044729E0,7.9128747E0,1.0286178E1,7.909872E0,2.741757E0,2.0670438E0,6.5568743E0,1.3560002E0,2.1132264E0,8.172951E0,1.257803E0,6.652069E0,1.0001886E0,1.7415684E0,1.0312867E0,1.0357572E0,2.0564616E0,6.116489E0,5.0546618E0,1.0618273E0],"tree_param":{"num_deleted":"0","num_feature":"14","num_nodes":"25","size_leaf_vector":"1"}},{"base_weights":[-9.370762E-8,-4.1303325E-2,1.1343735E-2,2.0522276E-2,-3.8129136E-2,-7.982228E-3,8.30602E-2,4.563626E-3,-2.9219924E-2,4.055724E-2,5.849416E-2,1.1455326E-2,-1.2369702E-2,-2.8461216E-2,2.3460856E-2,-4.288989E-3,7.9177655E-3],"categories":[],"categories_nodes":[],"categories_segments":[],"categories_sizes":[],"default_left":[0,0,0,0,0,0,0,0,0,0,0,0,0,0,0,0,0],"id":41,"left_children":[1,-1,3,5,-1,7,9,11,-1,13,-1,15,-1,-1,-1,-1,-1],"loss_changes":[5.2787818E-2,0E0,4.2287547E-2,5.4401707E-2,0E0,2.4698144E-2,3.740731E-2,6.7577423E-3,0E0,4.905576E-2,0E0,7.3368866E-3,0E0,0E0,0E0,0E0,0E0],"parents":[2147483647,0,0,2,2,3,3,5,5,6,6,7,7,9,9,11,11],"right_children":[2,-1,4,6,-1,8,10,12,-1,14,-1,16,-1,-1,-1,-1,-1],"split_conditions":[-4E-1,-4.1303325E-2,7.5E-1,9.44089E-1,-3.8129136E-2,1.6666667E-1,-1.6425781E-1,9.955504E-1,-2.9219924E-2,1.0239242E0,5.849416E-2,9.5776135E-1,-1.2369702E-2,-2.8461216E-2,2.3460856E-2,-4.288989E-3,7.9177655E-3],"split_indices":[8,0,7,9,0,1,5,10,0,10,0,10,0,0,0,0,0],"split_type":[0,0,0,0,0,0,0,0,0,0,0,0,0,0,0,0,0],"sum_hessian":[3.179953E1,1.5728906E0,3.0226639E1,2.9146036E1,1.0806024E0,2.0619928E1,8.526109E0,1.8914995E1,1.704933E0,7.166811E0,1.359298E0,1.7092636E1,1.8223592E0,1.2282287E0,5.9385824E0,6.2905445E0,1.0802092E1],"tree_param":{"num_deleted":"0","num_feature":"14","num_nodes":"17","size_leaf_vector":"1"}},{"base_weights":[2.8213877E-8,-3.3943497E-2,1.2196418E-2,-1.0843976E-2,6.023538E-2,5.9022807E-4,-2.663988E-2,7.872587E-2,-1.130995E-2,1.1550242E-2,-1.5334679E-2,4.0320586E-2,1.6066097E-2,8.2067435E-4,-2.6209084E-2,-4.8343493E-3,8.010305E-3],"categories":[],"categories_nodes":[],"categories_segments":[],"categories_sizes":[],"default_left":[0,0,0,0,0,0,0,0,0,0,0,0,0,0,0,0,0],"id":42,"left_children":[1,-1,3,5,7,9,-1,11,-1,-1,13,-1,-1,15,-1,-1,-1],"loss_changes":[4.635837E-2,0E0,3.4218125E-2,1.9076407E-2,2.1044873E-2,1.2426995E-2,0E0,5.0245E-3,0E0,0E0,1.6969778E-2,0E0,0E0,6.0631186E-3,0E0,0E0,0E0],"parents":[2147483647,0,0,2,2,3,3,4,4,5,5,7,7,10,10,13,13],"right_children":[2,-1,4,6,8,10,-1,12,-1,-1,14,-1,-1,16,-1,-1,-1],"split_conditions":[-3.860026E-1,-3.3943497E-2,9.44089E-1,1.0058777E0,9.6383125E-1,-3.4192708E-1,-2.663988E-2,9.8621154E-1,-1.130995E-2,1.1550242E-2,4.36624E0,4.0320586E-2,1.6066097E-2,3.125E-1,-2.6209084E-2,-4.8343493E-3,8.010305E-3],"split_indices":[5,0,9,10,9,5,0,10,0,0,4,0,0,12,0,0,0],"split_type":[0,0,0,0,0,0,0,0,0,0,0,0,0,0,0,0,0],"sum_hessian":[3.1593975E1,2.268874E0,2.9325102E1,2.034265E1,8.982451E0,1.8606024E1,1.7366253E0,7.72087E0,1.2615821E0,5.08444E0,1.35215845E1,1.0528567E0,6.668013E0,1.1851925E1,1.6696595E0,7.392127E0,4.459798E0],"tree_param":{"num_deleted":"0","num_feature":"14","num_nodes":"17","size_leaf_vector":"1"}},{"base_weights":[-2.5606077E-8,1.1468294E-2,-1.00870244E-1,-2.8863076E-2,1.89609E-2,-3.745725E-2,-1.0439377E-2,3.8711212E-3,1.9366898E-2,-1.8132173E-2,5.4032963E-2,3.1306092E-3,-5.2209754E-2,2.2137195E-3,3.970732E-2,-2.1119216E-2,3.9629447E-3,-7.596711E-3,1.0745041E-2],"categories":[],"categories_nodes":[],"categories_segments":[],"categories_sizes":[],"default_left":[0,0,0,0,0,0,0,0,0,0,1,0,0,0,0,0,0,0,0],"id":43,"left_children":[1,3,5,-1,7,-1,-1,9,-1,11,13,15,-1,17,-1,-1,-1,-1,-1],"loss_changes":[3.8683258E-2,2.604883E-2,1.0656379E-3,0E0,1.9639375E-2,0E0,0E0,2.6126435E-2,0E0,5.552363E-2,2.8921675E-2,1.2474299E-2,0E0,5.8563673E-3,0E0,0E0,0E0,0E0,0E0],"parents":[2147483647,0,0,1,1,2,2,4,4,7,7,9,9,10,10,11,11,13,13],"right_children":[2,4,6,-1,8,-1,-1,10,-1,12,14,16,-1,18,-1,-1,-1,-1,-1],"split_conditions":[1.6666667E-1,-4E-1,6.25E-1,-2.8863076E-2,1.0313263E0,-3.745725E-2,-1.0439377E-2,8.656216E-1,1.9366898E-2,9.470851E-1,1.5885814E0,5.2694327E-1,-5.2209754E-2,2.4E1,3.970732E-2,-2.1119216E-2,3.9629447E-3,-7.596711E-3,1.0745041E-2],"split_indices":[1,8,7,0,10,0,0,2,0,9,4,9,0,0,0,0,0,0,0],"split_type":[0,0,0,0,0,0,0,0,0,0,0,0,0,0,0,0,0,0,0],"sum_hessian":[3.1439539E1,2.9025791E1,2.4137466E0,1.1179987E0,2.7907793E1,1.1181117E0,1.2956347E0,2.1783468E1,6.1243253E0,1.5585484E1,6.197984E0,1.4577254E1,1.008229E0,4.348984E0,1.8490005E0,1.0359032E0,1.3541351E1,2.5257127E0,1.8232713E0],"tree_param":{"num_deleted":"0","num_feature":"14","num_nodes":"19","size_leaf_vector":"1"}},{"base_weights":[-4.2523773E-8,-3.127437E-2,1.112229E-2,-9.284387E-3,5.3718034E-2,1.04824976E-4,-2.2237511E-2,6.895368E-2,-8.997121E-3,1.0592548E-2,-1.4706034E-2,3.288268E-2,1.4753411E-2,-1.00297126E-4,-2.3297722E-2,5.5011767E-3,-6.116849E-3],"categories":[],"categories_nodes":[],"categories_segments":[],"categories_sizes":[],"default_left":[0,0,0,0,0,0,0,0,0,0,0,0,0,0,0,0,0],"id":44,"left_children":[1,-1,3,5,7,9,-1,11,-1,-1,13,-1,-1,15,-1,-1,-1],"loss_changes":[3.86332E-2,0E0,2.6669104E-2,1.2919294E-2,1.4692908E-2,1.0699035E-2,0E0,1.5866235E-3,0E0,0E0,1.3277119E-2,0E0,0E0,5.1355013E-3,0E0,0E0,0E0],"parents":[2147483647,0,0,2,2,3,3,4,4,5,5,7,7,10,10,13,13],"right_children":[2,-1,4,6,8,10,-1,12,-1,-1,14,-1,-1,16,-1,-1,-1],"split_conditions":[-3.860026E-1,-3.127437E-2,9.44089E-1,1.0058777E0,9.6383125E-1,-3.4192708E-1,-2.2237511E-2,9.8621154E-1,-8.997121E-3,1.0592548E-2,4.242988E0,3.288268E-2,1.4753411E-2,8.944749E-1,-2.3297722E-2,5.5011767E-3,-6.116849E-3],"split_indices":[5,0,9,10,9,5,0,10,0,0,4,0,0,9,0,0,0],"split_type":[0,0,0,0,0,0,0,0,0,0,0,0,0,0,0,0,0],"sum_hessian":[3.131944E1,2.2121804E0,2.9107262E1,2.0208061E1,8.8991995E0,1.8524076E1,1.6839849E0,7.678002E0,1.2211977E0,5.075722E0,1.3448354E1,1.0260342E0,6.6519675E0,1.1728758E1,1.7195965E0,6.1951756E0,5.5335817E0],"tree_param":{"num_deleted":"0","num_feature":"14","num_nodes":"17","size_leaf_vector":"1"}},{"base_weights":[-4.982852E-8,1.2675789E-2,-3.2762296E-2,-2.665185E-2,1.9615086E-2,4.389182E-3,1.7855885E-2,-1.4650209E-2,5.2317962E-2,-1.6935763E-3,-3.0723019E-2,-7.2023887E-3,3.4480188E-2,-1.818464E-2,2.501714E-3],"categories":[],"categories_nodes":[],"categories_segments":[],"categories_sizes":[],"default_left":[0,0,0,0,0,0,0,0,0,0,0,0,0,0,0],"id":45,"left_children":[1,3,-1,-1,5,7,-1,9,11,13,-1,-1,-1,-1,-1],"loss_changes":[4.5995086E-2,2.2714453E-2,0E0,0E0,1.7167306E-2,2.069847E-2,0E0,1.84902E-2,3.3483457E-2,9.561191E-3,0E0,0E0,0E0,0E0,0E0],"parents":[2147483647,0,0,1,1,4,4,5,5,7,7,8,8,9,9],"right_children":[2,4,-1,-1,6,8,-1,10,12,14,-1,-1,-1,-1,-1],"split_conditions":[1.6666667E-1,-4E-1,-3.2762296E-2,-2.665185E-2,1.1111111E-1,3.125E-1,1.7855885E-2,9.441903E-1,2.4E1,5.13693E-1,-3.0723019E-2,-7.2023887E-3,3.4480188E-2,-1.818464E-2,2.501714E-3],"split_indices":[1,8,0,0,1,12,0,9,0,9,0,0,0,0,0],"split_type":[0,0,0,0,0,0,0,0,0,0,0,0,0,0,0],"sum_hessian":[3.1226295E1,2.8770773E1,2.455524E0,1.085696E0,2.7685076E1,2.0842457E1,6.84262E0,1.5413772E1,5.428685E0,1.4319043E1,1.094728E0,2.72438E0,2.7043052E0,1.3497989E0,1.2969244E1],"tree_param":{"num_deleted":"0","num_feature":"14","num_nodes":"15","size_leaf_vector":"1"}},{"base_weights":[4.389843E-8,-2.9661106E-2,8.9976E-3,-1.0048781E-2,4.9345404E-2,1.600862E-2,-3.398545E-2,2.1703633E-2,3.5013553E-2,-2.288673E-2,2.8650858E-2,-1.0660049E-1,-3.6550679E-3,-3.0103333E-2,1.6424483E-2,-9.388674E-3,-6.1423157E-4,2.8440072E-3,1.518818E-2,-6.248788E-3,-4.204547E-2,2.7671115E-2,-3.346753E-2,-2.5315588E-2,-3.858547E-3],"categories":[],"categories_nodes":[],"categories_segments":[],"categories_sizes":[],"default_left":[0,0,0,0,0,0,0,0,0,0,0,0,0,0,0,0,0,0,0,0,0,0,0,0,0],"id":46,"left_children":[1,-1,3,5,7,9,11,13,-1,15,17,19,21,-1,-1,-1,-1,-1,-1,-1,-1,-1,23,-1,-1],"loss_changes":[2.94375E-2,0E0,2.3804465E-2,1.3913785E-2,1.5893783E-2,6.036543E-3,2.4921825E-2,3.874606E-2,0E0,5.037179E-4,3.186494E-3,6.722439E-3,2.9221868E-2,0E0,0E0,0E0,0E0,0E0,0E0,0E0,0E0,0E0,7.001442E-3,0E0,0E0],"parents":[2147483647,0,0,2,2,3,3,4,4,5,5,6,6,7,7,9,9,10,10,11,11,12,12,22,22],"right_children":[2,-1,4,6,8,10,12,14,-1,16,18,20,22,-1,-1,-1,-1,-1,-1,-1,-1,-1,24,-1,-1],"split_conditions":[-4.0683594E-1,-2.9661106E-2,9.44089E-1,5.3153527E-1,-1.671224E-1,9.8605204E-1,8.6908716E-1,1.0239242E0,3.5013553E-2,1.8451419E0,3.125E-1,3.8309524E0,9.100691E-1,-3.0103333E-2,1.6424483E-2,-9.388674E-3,-6.1423157E-4,2.8440072E-3,1.518818E-2,-6.248788E-3,-4.204547E-2,2.7671115E-2,9.4388807E-1,-2.5315588E-2,-3.858547E-3],"split_indices":[5,0,9,9,5,10,9,10,0,4,12,4,9,0,0,0,0,0,0,0,0,0,9,0,0],"split_type":[0,0,0,0,0,0,0,0,0,0,0,0,0,0,0,0,0,0,0,0,0,0,0,0,0],"sum_hessian":[3.1091011E1,1.7602106E0,2.9330801E1,2.0435207E1,8.895595E0,9.942756E0,1.0492451E1,7.245001E0,1.6505936E0,2.240194E0,7.702562E0,2.3504677E0,8.141983E0,1.1097147E0,6.1352863E0,1.238635E0,1.0015591E0,4.8783603E0,2.8242016E0,1.1166488E0,1.233819E0,1.4343789E0,6.707604E0,1.0407124E0,5.6668916E0],"tree_param":{"num_deleted":"0","num_feature":"14","num_nodes":"25","size_leaf_vector":"1"}},{"base_weights":[-3.3836404E-8,-2.8159369E-2,9.821909E-3,-8.051054E-3,4.6885096E-2,2.4523696E-2,-2.0667179E-2,2.6865972E-2,2.6912006E-2,3.4500465E-3,1.3992898E-2,-8.187656E-2,-2.1033254E-3,-2.5657762E-2,1.6506298E-2,-1.1228664E-3,-3.306801E-2,-1.2465614E-2,5.4810178E-3,-4.2271763E-3,1.1229821E-2],"categories":[],"categories_nodes":[],"categories_segments":[],"categories_sizes":[],"default_left":[0,0,0,0,0,0,0,0,0,0,0,0,0,0,0,0,0,0,0,0,0],"id":47,"left_children":[1,-1,3,5,7,9,11,13,-1,-1,-1,15,17,-1,-1,-1,-1,-1,19,-1,-1],"loss_changes":[3.0456813E-2,0E0,2.018838E-2,9.149523E-3,6.056439E-3,1.2866305E-3,1.7669374E-2,3.0519474E-2,0E0,0E0,0E0,7.622814E-3,4.1394443E-3,0E0,0E0,0E0,0E0,0E0,7.937402E-3,0E0,0E0],"parents":[2147483647,0,0,2,2,3,3,4,4,5,5,6,6,7,7,11,11,12,12,18,18],"right_children":[2,-1,4,6,8,10,12,14,-1,-1,-1,16,18,-1,-1,-1,-1,-1,20,-1,-1],"split_conditions":[-3.860026E-1,-2.8159369E-2,9.44089E-1,-3.4192708E-1,-1.671224E-1,1E0,-1.7604166E-1,1.0239242E0,2.6912006E-2,3.4500465E-3,1.3992898E-2,5.3547716E-1,5.625E-1,-2.5657762E-2,1.6506298E-2,-1.1228664E-3,-3.306801E-2,-1.2465614E-2,3.125E-1,-4.2271763E-3,1.1229821E-2],"split_indices":[5,0,9,5,5,6,5,10,0,0,0,9,7,0,0,0,0,0,12,0,0],"split_type":[0,0,0,0,0,0,0,0,0,0,0,0,0,0,0,0,0,0,0,0,0],"sum_hessian":[3.103586E1,2.1293983E0,2.8906462E1,2.003012E1,8.87634E0,5.3283978E0,1.4701724E1,7.157566E0,1.7187743E0,4.310405E0,1.0179926E0,2.627547E0,1.2074177E1,1.0256405E0,6.1319256E0,1.0009438E0,1.6266031E0,1.2248192E0,1.0849358E1,7.074791E0,3.7745667E0],"tree_param":{"num_deleted":"0","num_feature":"14","num_nodes":"21","size_leaf_vector":"1"}},{"base_weights":[-2.367477E-9,-2.9277097E-2,7.516222E-3,-8.904476E-3,5.0418172E-2,1.0965675E-2,-2.5248053E-2,1.7416945E-2,-6.2343775E-4,-1.646558E-2,2.3211878E-2,-8.758144E-2,-4.597782E-3,1.2123715E-2,8.998241E-4,-6.325125E-3,-3.3046193E-2,-2.3016445E-2,2.0073283E-2,-1.1049518E-2,1.3725849E-2,1.1828826E-2,-1.0700135E-2],"categories":[],"categories_nodes":[],"categories_segments":[],"categories_sizes":[],"default_left":[0,0,0,0,0,0,0,0,0,0,0,0,0,0,0,0,0,0,0,0,0,0,0],"id":48,"left_children":[1,-1,3,5,7,9,11,-1,-1,-1,13,15,17,-1,19,-1,-1,21,-1,-1,-1,-1,-1],"loss_changes":[2.4154628E-2,0E0,2.198864E-2,7.733711E-3,3.5744924E-3,1.019311E-2,1.62045E-2,0E0,0E0,0E0,3.8123867E-3,2.4135169E-3,1.5694356E-2,0E0,1.0804311E-2,0E0,0E0,8.744929E-3,0E0,0E0,0E0,0E0,0E0],"parents":[2147483647,0,0,2,2,3,3,4,4,5,5,6,6,10,10,11,11,12,12,14,14,17,17],"right_children":[2,-1,4,6,8,10,12,-1,-1,-1,14,16,18,-1,20,-1,-1,22,-1,-1,-1,-1,-1],"split_conditions":[-4E-1,-2.9277097E-2,9.5767635E-1,5.305671E-1,9.6383125E-1,8.444196E-1,1E0,1.7416945E-2,-6.2343775E-4,-1.646558E-2,6.25E-2,-2.857143E-1,5.51701E0,1.2123715E-2,2.4E1,-6.325125E-3,-3.3046193E-2,3.9166787E0,2.0073283E-2,-1.1049518E-2,1.3725849E-2,1.1828826E-2,-1.0700135E-2],"split_indices":[8,0,9,9,9,2,6,0,0,0,12,1,4,0,0,0,0,4,0,0,0,0,0],"split_type":[0,0,0,0,0,0,0,0,0,0,0,0,0,0,0,0,0,0,0,0,0,0,0],"sum_hessian":[3.0930162E1,1.3548534E0,2.957531E1,2.1961863E1,7.6134458E0,1.0060088E1,1.1901775E1,6.553922E0,1.0595233E0,1.0315207E0,9.028568E0,2.1551676E0,9.746608E0,4.6401844E0,4.3883834E0,1.0363045E0,1.1188631E0,8.289574E0,1.4570333E0,2.4805298E0,1.9078535E0,1.0398605E0,7.2497134E0],"tree_param":{"num_deleted":"0","num_feature":"14","num_nodes":"23","size_leaf_vector":"1"}},{"base_weights":[-6.027447E-8,9.365104E-3,-8.516564E-2,-2.1373158E-2,1.4697627E-2,-3.228794E-2,-8.103562E-3,9.3451067E-4,4.2761106E-2,2.2967428E-2,-1.0673791E-2,1.7520303E-2,3.4608655E-2,1.4096743E-3,1.8542642E-2,-1.4934578E-2,-2.4050188E-3,-2.6473144E-2,1.3957314E-2,-5.1715095E-3,4.411865E-3],"categories":[],"categories_nodes":[],"categories_segments":[],"categories_sizes":[],"default_left":[0,0,0,0,0,0,0,0,0,0,0,0,0,0,0,0,0,0,0,0,0],"id":49,"left_children":[1,3,5,-1,7,-1,-1,9,11,13,15,17,-1,-1,-1,-1,19,-1,-1,-1,-1],"loss_changes":[2.6147507E-2,1.3742855E-2,1.3350602E-3,0E0,1.098015E-2,0E0,0E0,5.402808E-3,1.5142223E-2,4.8721964E-3,4.371957E-3,2.9041676E-2,0E0,0E0,0E0,0E0,3.4304059E-3,0E0,0E0,0E0,0E0],"parents":[2147483647,0,0,1,1,2,2,4,4,7,7,8,8,9,9,10,10,11,11,16,16],"right_children":[2,4,6,-1,8,-1,-1,10,12,14,16,18,-1,-1,-1,-1,20,-1,-1,-1,-1],"split_conditions":[1.6666667E-1,-4E-1,6.25E-1,-2.1373158E-2,9.44089E-1,-3.228794E-2,-8.103562E-3,-3.251953E-1,-1.6425781E-1,9.085159E-1,-1.7604166E-1,1.0260509E0,3.4608655E-2,1.4096743E-3,1.8542642E-2,-1.4934578E-2,9.7088736E-1,-2.6473144E-2,1.3957314E-2,-5.1715095E-3,4.411865E-3],"split_indices":[1,8,7,0,9,0,0,5,5,9,5,10,0,0,0,0,10,0,0,0,0],"split_type":[0,0,0,0,0,0,0,0,0,0,0,0,0,0,0,0,0,0,0,0,0],"sum_hessian":[3.0783163E1,2.8535336E1,2.2478285E0,1.0036362E0,2.7531698E1,1.0078449E0,1.2399836E0,1.9165634E1,8.366064E0,6.275675E0,1.288996E1,7.1289167E0,1.2371471E0,5.0305843E0,1.2450902E0,1.373475E0,1.1516485E1,1.0946791E0,6.034238E0,6.1648693E0,5.3516164E0],"tree_param":{"num_deleted":"0","num_feature":"14","num_nodes":"21","size_leaf_vector":"1"}},{"base_weights":[-2.5968829E-8,-2.452273E-2,8.400817E-3,3.122793E-2,-1.3685141E-2,-3.1296955E-3,5.335729E-2,-8.606555E-2,5.4108384E-3,5.8208755E-3,-1.4050112E-2,8.475401E-3,3.548607E-2,3.5662827E-4,-3.7204687E-2,-9.345591E-3,2.9222447E-2,1.2026335E-2,-2.152785E-2,-7.862069E-3,8.070584E-2,-2.6980652E-3,-1.28127495E-2,1.0180129E-3,3.534937E-2],"categories":[],"categories_nodes":[],"categories_segments":[],"categories_sizes":[],"default_left":[0,0,0,0,0,0,0,0,0,0,0,0,0,0,0,0,0,0,0,0,0,0,0,0,0],"id":50,"left_children":[1,-1,3,5,7,9,11,13,15,-1,-1,-1,-1,-1,-1,17,19,-1,21,-1,23,-1,-1,-1,-1],"loss_changes":[2.246236E-2,0E0,1.5381676E-2,1.1488745E-2,2.2263967E-2,7.5837155E-3,1.1512959E-2,1.1244927E-2,4.988406E-3,0E0,0E0,0E0,0E0,0E0,0E0,6.3086976E-3,1.7458657E-2,0E0,1.7147635E-3,0E0,8.304857E-3,0E0,0E0,0E0,0E0],"parents":[2147483647,0,0,2,2,3,3,4,4,5,5,6,6,7,7,8,8,15,15,16,16,18,18,20,20],"right_children":[2,-1,4,6,8,10,12,14,16,-1,-1,-1,-1,-1,-1,18,20,-1,22,-1,24,-1,-1,-1,-1],"split_conditions":[-3.860026E-1,-2.452273E-2,5E-2,8.6908716E-1,-1.8248698E-1,-3.4192708E-1,6.25E-2,5E-2,3.125E-1,5.8208755E-3,-1.4050112E-2,8.475401E-3,3.548607E-2,3.5662827E-4,-3.7204687E-2,-1.6282552E-1,2.4E1,1.2026335E-2,-1.5970053E-1,-7.862069E-3,1.4489763E0,-2.6980652E-3,-1.28127495E-2,1.0180129E-3,3.534937E-2],"split_indices":[5,0,3,9,5,5,11,11,12,0,0,0,0,0,0,5,0,0,5,0,4,0,0,0,0],"split_type":[0,0,0,0,0,0,0,0,0,0,0,0,0,0,0,0,0,0,0,0,0,0,0,0,0],"sum_hessian":[3.0710348E1,2.0484202E0,2.8661928E1,1.3890926E1,1.4771002E1,5.7782683E0,8.1126585E0,2.3513956E0,1.2419606E1,4.179479E0,1.5987892E0,6.8854203E0,1.227238E0,1.0063301E0,1.3450654E0,8.042847E0,4.376759E0,1.1372848E0,6.905562E0,2.3440323E0,2.032727E0,5.2332945E0,1.6722673E0,1.0135157E0,1.0192113E0],"tree_param":{"num_deleted":"0","num_feature":"14","num_nodes":"25","size_leaf_vector":"1"}},{"base_weights":[-1.43801E-7,7.6138075E-3,-2.601953E-2,-5.612161E-3,4.292685E-2,-2.4658369E-2,3.8782798E-2,8.527823E-4,1.4476064E-2,-2.6135968E-2,-1.1631748E-2,-7.9793865E-3,3.365518E-2,8.311662E-3,-3.1905428E-2,-1.3976955E-2,6.115466E-3,-3.4040287E-2,-1.1445439E-3],"categories":[],"categories_nodes":[],"categories_segments":[],"categories_sizes":[],"default_left":[0,0,0,0,0,0,1,0,0,0,0,0,0,0,0,0,0,0,0],"id":51,"left_children":[1,3,-1,5,7,9,11,-1,-1,-1,13,15,-1,-1,17,-1,-1,-1,-1],"loss_changes":[2.1545706E-2,1.4249425E-2,0E0,2.0154936E-2,1.6325274E-3,1.241215E-2,2.5626402E-2,0E0,0E0,0E0,1.2692578E-2,6.7922613E-3,0E0,0E0,2.3018412E-2,0E0,0E0,0E0,0E0],"parents":[2147483647,0,0,1,1,3,3,4,4,5,5,6,6,10,10,11,11,14,14],"right_children":[2,4,-1,6,8,10,12,-1,-1,-1,14,16,-1,-1,18,-1,-1,-1,-1],"split_conditions":[2.3076923E-1,1.1111111E-1,-2.601953E-2,8.656216E-1,1.013327E0,-3.6959636E-1,1.5885814E0,8.527823E-4,1.4476064E-2,-2.6135968E-2,-3.251953E-1,9.8557574E-1,3.365518E-2,8.311662E-3,-1.7604166E-1,-1.3976955E-2,6.115466E-3,-3.4040287E-2,-1.1445439E-3],"split_indices":[1,1,0,2,10,5,4,0,0,0,5,10,0,0,5,0,0,0,0],"split_type":[0,0,0,0,0,0,0,0,0,0,0,0,0,0,0,0,0,0,0],"sum_hessian":[3.0626722E1,2.8993656E1,1.633066E0,2.1705328E1,7.2883286E0,1.5500089E1,6.205239E0,1.0348159E0,6.253513E0,1.6932527E0,1.3806836E1,4.334878E0,1.870361E0,4.57103E0,9.235806E0,1.5637251E0,2.7711525E0,1.58737E0,7.648436E0],"tree_param":{"num_deleted":"0","num_feature":"14","num_nodes":"19","size_leaf_vector":"1"}},{"base_weights":[-1.2892285E-7,-2.4625665E-2,6.189448E-3,1.1081623E-2,-1.9138059E-2,-3.5224436E-3,4.724388E-2,-9.764043E-3,9.763682E-3,2.659528E-2,8.910758E-3,1.8745359E-2,-1.48910275E-2,2.0985711E-2,2.873738E-3],"categories":[],"categories_nodes":[],"categories_segments":[],"categories_sizes":[],"default_left":[0,0,0,0,0,0,0,0,0,0,0,0,0,0,0],"id":52,"left_children":[1,-1,3,5,-1,7,9,-1,11,-1,-1,13,-1,-1,-1],"loss_changes":[1.6520677E-2,0E0,1.1058925E-2,1.5541337E-2,0E0,8.673595E-3,3.5002586E-3,0E0,9.271158E-3,0E0,0E0,6.0447818E-3,0E0,0E0,0E0],"parents":[2147483647,0,0,2,2,3,3,5,5,6,6,8,8,11,11],"right_children":[2,-1,4,6,-1,8,10,-1,12,-1,-1,14,-1,-1,-1],"split_conditions":[-4E-1,-2.4625665E-2,1E-1,9.5767635E-1,-1.9138059E-2,9.5776135E-1,-7.692308E-2,-9.764043E-3,1.6666667E-1,2.659528E-2,8.910758E-3,9.672827E-1,-1.48910275E-2,2.0985711E-2,2.873738E-3],"split_indices":[8,0,13,9,0,10,1,0,1,0,0,10,0,0,0],"split_type":[0,0,0,0,0,0,0,0,0,0,0,0,0,0,0],"sum_hessian":[3.05163E1,1.2799436E0,2.9236357E1,2.811278E1,1.1235771E0,2.0668451E1,7.444327E0,6.0349803E0,1.46334715E1,1.0089155E0,6.4354115E0,1.3305961E1,1.3275115E0,1.0133528E0,1.2292607E1],"tree_param":{"num_deleted":"0","num_feature":"14","num_nodes":"15","size_leaf_vector":"1"}},{"base_weights":[-1.0821299E-8,-2.5087265E-2,6.250173E-3,1.2385938E-2,-1.7745964E-2,1.7139854E-2,-1.7192658E-2,1.9774619E-3,5.1702853E-2,1.8185576E-2,-4.3672845E-3,2.729954E-2,1.0009523E-2,-5.1747505E-3,7.957834E-3],"categories":[],"categories_nodes":[],"categories_segments":[],"categories_sizes":[],"default_left":[0,0,0,0,0,0,0,0,0,0,0,0,0,0,0],"id":53,"left_children":[1,-1,3,5,-1,7,-1,9,11,-1,13,-1,-1,-1,-1],"loss_changes":[1.699978E-2,0E0,1.2877278E-2,1.0423131E-2,0E0,1.4280369E-2,0E0,7.749145E-3,2.9654726E-3,0E0,8.05263E-3,0E0,0E0,0E0,0E0],"parents":[2147483647,0,0,2,2,3,3,5,5,7,7,8,8,10,10],"right_children":[2,-1,4,6,-1,8,-1,10,12,-1,14,-1,-1,-1,-1],"split_conditions":[-4E-1,-2.5087265E-2,5.7950587E0,1E-1,-1.7745964E-2,9.553118E-1,-1.7192658E-2,4.1726276E-1,6.875E-1,1.8185576E-2,5.0723424E0,2.729954E-2,1.0009523E-2,-5.1747505E-3,7.957834E-3],"split_indices":[8,0,4,13,0,9,0,9,7,0,4,0,0,0,0],"split_type":[0,0,0,0,0,0,0,0,0,0,0,0,0,0,0],"sum_hessian":[3.0525091E1,1.26191E0,2.926318E1,2.7494434E1,1.7687458E0,2.6444702E1,1.0497326E0,1.9115963E1,7.32874E0,1.0311794E0,1.8084784E1,1.0711174E0,6.2576227E0,1.3074607E1,5.0101757E0],"tree_param":{"num_deleted":"0","num_feature":"14","num_nodes":"15","size_leaf_vector":"1"}},{"base_weights":[-5.885622E-8,-2.4253333E-2,8.231678E-3,1.3355169E-2,-1.9928528E-2,-2.6771141E-2,2.0069506E-2,8.468921E-3,-2.4796337E-2,9.500887E-3,7.767151E-2,-1.7660819E-2,2.9709192E-2,3.0599777E-2,7.914063E-3,3.7075663E-3,-2.5645612E-2,1.7264753E-3,1.3815236E-2],"categories":[],"categories_nodes":[],"categories_segments":[],"categories_sizes":[],"default_left":[0,0,0,0,0,0,0,0,0,0,0,0,0,0,0,0,0,0,0],"id":54,"left_children":[1,-1,3,5,-1,7,9,-1,-1,11,13,15,17,-1,-1,-1,-1,-1,-1],"loss_changes":[2.16202E-2,0E0,1.216593E-2,8.195467E-3,0E0,1.6173743E-2,1.4433649E-2,0E0,0E0,1.2708614E-2,1.9563884E-3,2.1613797E-2,4.8632426E-3,0E0,0E0,0E0,0E0,0E0,0E0],"parents":[2147483647,0,0,2,2,3,3,5,5,6,6,9,9,10,10,11,11,12,12],"right_children":[2,-1,4,6,-1,8,10,-1,-1,12,14,16,18,-1,-1,-1,-1,-1,-1],"split_conditions":[-3.860026E-1,-2.4253333E-2,2.7272728E-1,2.4E1,-1.9928528E-2,1.4489763E0,3.125E-1,8.468921E-3,-2.4796337E-2,9.934812E-1,9.7700214E-1,9.687278E-1,9.428549E-1,3.0599777E-2,7.914063E-3,3.7075663E-3,-2.5645612E-2,1.7264753E-3,1.3815236E-2],"split_indices":[5,0,1,0,0,4,12,0,0,10,10,10,9,0,0,0,0,0,0],"split_type":[0,0,0,0,0,0,0,0,0,0,0,0,0,0,0,0,0,0,0],"sum_hessian":[3.0487661E1,2.0022616E0,2.84854E1,2.7424532E1,1.0608667E0,3.5029566E0,2.3921576E1,2.0148084E0,1.4881482E0,2.1197308E1,2.724269E0,9.096665E0,1.2100642E1,1.1772612E0,1.5470077E0,6.872611E0,2.224054E0,5.455653E0,6.644989E0],"tree_param":{"num_deleted":"0","num_feature":"14","num_nodes":"19","size_leaf_vector":"1"}},{"base_weights":[6.1715646E-8,-2.3389764E-2,5.791049E-3,1.081277E-2,-1.8709965E-2,1.5215537E-2,-1.6321497E-2,4.701973E-4,4.476883E-2,-7.0910407E-3,2.0411855E-2,7.1969214E-3,2.7182607E-2,1.2774682E-3,-2.1987624E-2],"categories":[],"categories_nodes":[],"categories_segments":[],"categories_sizes":[],"default_left":[0,0,0,0,0,0,0,0,0,0,0,0,0,0,0],"id":55,"left_children":[1,-1,3,5,-1,7,-1,9,11,13,-1,-1,-1,-1,-1],"loss_changes":[1.4599962E-2,0E0,1.0976912E-2,9.122511E-3,0E0,1.2111794E-2,0E0,1.0488664E-2,6.643681E-3,1.4226541E-2,0E0,0E0,0E0,0E0,0E0],"parents":[2147483647,0,0,2,2,3,3,5,5,7,7,8,8,9,9],"right_children":[2,-1,4,6,-1,8,-1,10,12,14,-1,-1,-1,-1,-1],"split_conditions":[-4E-1,-2.3389764E-2,5.9644513E0,1E-1,-1.8709965E-2,9.44089E-1,-1.6321497E-2,5.51701E0,-1.671224E-1,-9.090909E-2,2.0411855E-2,7.1969214E-3,2.7182607E-2,1.2774682E-3,-2.1987624E-2],"split_indices":[8,0,4,13,0,9,0,4,5,1,0,0,0,0,0],"split_type":[0,0,0,0,0,0,0,0,0,0,0,0,0,0,0],"sum_hessian":[3.0336578E1,1.2357647E0,2.9100815E1,2.7887476E1,1.213339E0,2.6842096E1,1.0453793E0,1.8585129E1,8.256967E0,1.7519672E1,1.0654562E0,6.7297335E0,1.5272332E0,1.5754462E1,1.7652109E0],"tree_param":{"num_deleted":"0","num_feature":"14","num_nodes":"15","size_leaf_vector":"1"}},{"base_weights":[-2.3939226E-8,-2.1753807E-2,5.2713165E-3,-2.0726854E-2,2.0070642E-2,-3.2281905E-2,7.838158E-3,-1.3171304E-2,2.6533248E-2,-4.187684E-3,-1.8061575E-2,8.145978E-3,4.2198073E-2,1.3649466E-2,-9.90491E-3,2.9064778E-2,2.4261964E-2,6.455282E-3,-1.7757023E-2,-1.1199428E-2,1.1951962E-2],"categories":[],"categories_nodes":[],"categories_segments":[],"categories_sizes":[],"default_left":[0,0,0,0,0,0,0,0,0,0,0,0,0,0,0,0,0,0,0,0,0],"id":56,"left_children":[1,-1,3,5,7,9,-1,-1,11,-1,-1,13,15,-1,17,-1,19,-1,-1,-1,-1],"loss_changes":[1.2353888E-2,0E0,1.2008501E-2,7.0270323E-3,9.313128E-3,4.076073E-3,0E0,0E0,4.991548E-3,0E0,0E0,7.031483E-3,7.2250813E-3,0E0,1.2736144E-2,0E0,9.82113E-3,0E0,0E0,0E0,0E0],"parents":[2147483647,0,0,2,2,3,3,4,4,5,5,8,8,11,11,12,12,14,14,16,16],"right_children":[2,-1,4,6,8,10,-1,-1,12,-1,-1,14,16,-1,18,-1,20,-1,-1,-1,-1],"split_conditions":[-4E-1,-2.1753807E-2,9.8067653E-1,6.25E-2,-3.7636718E-1,9.5742023E-1,7.838158E-3,-1.3171304E-2,1E0,-4.187684E-3,-1.8061575E-2,2.4E1,-2.3076923E-1,1.3649466E-2,-3.2727864E-1,2.9064778E-2,1.0209249E0,6.455282E-3,-1.7757023E-2,-1.1199428E-2,1.1951962E-2],"split_indices":[8,0,10,11,5,10,0,0,6,0,0,0,1,0,5,0,10,0,0,0,0],"split_type":[0,0,0,0,0,0,0,0,0,0,0,0,0,0,0,0,0,0,0,0,0],"sum_hessian":[3.0319815E1,1.1902796E0,2.9129534E1,1.0421472E1,1.8708063E1,8.60928E0,1.8121921E0,1.184894E0,1.7523169E1,6.1038857E0,2.505394E0,8.760346E0,8.762821E0,2.3587964E0,6.4015503E0,1.0771655E0,7.685656E0,4.2532387E0,2.1483119E0,1.2695509E0,6.4161053E0],"tree_param":{"num_deleted":"0","num_feature":"14","num_nodes":"21","size_leaf_vector":"1"}},{"base_weights":[-4.2114014E-8,7.318482E-3,-2.0956878E-2,-7.5080474E-3,2.4154456E-2,-3.0301498E-2,3.435553E-2,-5.8790823E-3,2.9373176E-2,8.560718E-4,-8.603252E-2,-7.981159E-3,2.6403237E-2,3.2744398E-3,3.8529728E-2,-6.4782426E-3,2.2838963E-2,-6.8089007E-3,-4.0338807E-2,1.7879738E-2,8.114587E-3],"categories":[],"categories_nodes":[],"categories_segments":[],"categories_sizes":[],"default_left":[0,0,0,0,0,0,0,0,0,0,0,0,0,0,0,0,0,0,0,0,0],"id":57,"left_children":[1,3,-1,5,7,9,11,-1,13,15,17,-1,-1,-1,19,-1,-1,-1,-1,-1,-1],"loss_changes":[1.6489863E-2,7.4691493E-3,0E0,1.6582474E-2,3.751303E-3,1.9307913E-2,2.2654146E-2,0E0,1.7473251E-3,1.5323643E-2,9.162236E-3,0E0,0E0,0E0,3.66237E-4,0E0,0E0,0E0,0E0,0E0,0E0],"parents":[2147483647,0,0,1,1,3,3,4,4,5,5,6,6,8,8,9,9,10,10,14,14],"right_children":[2,4,-1,6,8,10,12,-1,14,16,18,-1,-1,-1,20,-1,-1,-1,-1,-1,-1],"split_conditions":[1.6666667E-1,9.934812E-1,-2.0956878E-2,3.125E-1,-2.7272728E-1,9.677187E-1,2.4E1,-5.8790823E-3,1E0,9.5776135E-1,-2.3076923E-1,-7.981159E-3,2.6403237E-2,3.2744398E-3,9.5767635E-1,-6.4782426E-3,2.2838963E-2,-6.8089007E-3,-4.0338807E-2,1.7879738E-2,8.114587E-3],"split_indices":[1,10,0,12,1,10,0,0,6,10,1,0,0,0,9,0,0,0,0,0,0],"split_type":[0,0,0,0,0,0,0,0,0,0,0,0,0,0,0,0,0,0,0,0,0],"sum_hessian":[3.0254372E1,2.8195673E1,2.0586996E0,1.5287153E1,1.2908519E1,1.0076817E1,5.210337E0,1.0820419E0,1.1826477E1,7.0949044E0,2.9819124E0,2.6751673E0,2.5351696E0,4.64825E0,7.178227E0,6.014285E0,1.0806191E0,1.9284965E0,1.0534158E0,1.0536233E0,6.1246037E0],"tree_param":{"num_deleted":"0","num_feature":"14","num_nodes":"21","size_leaf_vector":"1"}},{"base_weights":[-2.6253792E-8,5.533219E-3,-1.9918386E-2,-1.8209748E-2,1.9164352E-2,-5.3822886E-2,-2.2537664E-3,-1.0999607E-2,2.4857996E-2,-8.381289E-4,-2.3109743E-2,1.6216617E-2,-5.729373E-3,9.23352E-3,3.7745416E-2,1.2810139E-2,-7.6690796E-3,2.8619653E-2,1.7889233E-2,6.207365E-3,-1.6073175E-2,-1.4855545E-2,1.0281203E-2],"categories":[],"categories_nodes":[],"categories_segments":[],"categories_sizes":[],"default_left":[0,0,0,0,0,0,0,0,0,0,0,0,0,0,0,0,0,0,0,0,0,0,0],"id":58,"left_children":[1,3,-1,5,7,9,11,-1,13,-1,-1,-1,-1,15,17,-1,19,-1,21,-1,-1,-1,-1],"loss_changes":[1.1827124E-2,9.966634E-3,0E0,6.328891E-3,7.0672836E-3,3.8926946E-3,9.45739E-3,0E0,3.3100648E-3,0E0,0E0,0E0,0E0,5.7220487E-3,9.321011E-3,0E0,1.0461981E-2,0E0,1.0968237E-2,0E0,0E0,0E0,0E0],"parents":[2147483647,0,0,1,1,3,3,4,4,5,5,6,6,8,8,13,13,14,14,16,16,18,18],"right_children":[2,4,-1,6,8,10,12,-1,14,-1,-1,-1,-1,16,18,-1,20,-1,22,-1,-1,-1,-1],"split_conditions":[2.3076923E-1,9.8067653E-1,-1.9918386E-2,6.25E-1,-3.7636718E-1,4.2932227E-1,6.875E-1,-1.0999607E-2,1E0,-8.381289E-4,-2.3109743E-2,1.6216617E-2,-5.729373E-3,2.4E1,-2.3076923E-1,1.2810139E-2,-3.2727864E-1,2.8619653E-2,1.1111111E-1,6.207365E-3,-1.6073175E-2,-1.4855545E-2,1.0281203E-2],"split_indices":[1,10,0,7,5,9,7,0,6,0,0,0,0,0,1,0,5,0,1,0,0,0,0],"split_type":[0,0,0,0,0,0,0,0,0,0,0,0,0,0,0,0,0,0,0,0,0,0,0],"sum_hessian":[3.0193382E1,2.8716818E1,1.4765635E0,1.035113E1,1.8365688E1,2.4684448E0,7.882685E0,1.196228E0,1.716946E1,1.1219879E0,1.3464569E0,1.3063778E0,6.5763073E0,8.536471E0,8.632989E0,2.3524275E0,6.184044E0,1.2369505E0,7.396038E0,4.162131E0,2.021913E0,1.050503E0,6.3455353E0],"tree_param":{"num_deleted":"0","num_feature":"14","num_nodes":"23","size_leaf_vector":"1"}},{"base_weights":[-1.6000243E-8,-6.0551204E-2,9.113908E-3,-2.7515043E-2,-2.1410563E-3,-1.1846515E-2,2.0115275E-2,-1.6657108E-2,6.773142E-3,2.5872819E-3,2.799039E-2,2.267404E-2,-5.016695E-3,-1.5404421E-2,3.0482758E-2,1.5886229E-3,1.2401824E-2,7.6791523E-3,1.837113E-2,6.1358223E-3,-4.462197E-3],"categories":[],"categories_nodes":[],"categories_segments":[],"categories_sizes":[],"default_left":[0,0,0,0,0,0,1,0,0,0,0,0,0,0,0,0,0,0,0,0,0],"id":59,"left_children":[1,3,5,-1,-1,7,9,-1,11,13,15,-1,-1,-1,17,-1,-1,19,-1,-1,-1],"loss_changes":[1.7734429E-2,6.344055E-3,6.6791466E-3,0E0,0E0,8.706662E-3,2.5071935E-3,0E0,1.4315358E-2,1.1939533E-2,3.6567561E-3,0E0,0E0,0E0,3.1570806E-3,0E0,0E0,1.4892214E-3,0E0,0E0,0E0],"parents":[2147483647,0,0,1,1,2,2,5,5,6,6,8,8,9,9,10,10,14,14,17,17],"right_children":[2,4,6,-1,-1,8,10,-1,12,14,16,-1,-1,-1,18,-1,-1,20,-1,-1,-1],"split_conditions":[-3.5104167E-1,9.085159E-1,9.8067653E-1,-2.7515043E-2,-2.1410563E-3,6.25E-1,4.1567907E0,-1.6657108E-2,4.136654E0,-1.4576823E-1,8.7736136E-1,2.267404E-2,-5.016695E-3,-1.5404421E-2,4.7156206E-1,1.5886229E-3,1.2401824E-2,2.4E1,1.837113E-2,6.1358223E-3,-4.462197E-3],"split_indices":[5,9,10,0,0,7,4,0,4,5,9,0,0,0,9,0,0,0,0,0,0],"split_type":[0,0,0,0,0,0,0,0,0,0,0,0,0,0,0,0,0,0,0,0,0],"sum_hessian":[3.0135803E1,3.2041597E0,2.6931643E1,1.5706518E0,1.6335081E0,9.243529E0,1.7688114E1,2.1703722E0,7.073157E0,5.8952756E0,1.1792839E1,1.2361794E0,5.8369775E0,1.7230539E0,4.1722217E0,4.884788E0,6.9080505E0,3.113402E0,1.0588197E0,2.0471013E0,1.0663004E0],"tree_param":{"num_deleted":"0","num_feature":"14","num_nodes":"21","size_leaf_vector":"1"}},{"base_weights":[-9.978259E-8,-4.9104698E-2,7.1724574E-3,-2.5428874E-2,-1.8524978E-3,-2.183229E-2,1.9143848E-2,5.7355454E-3,-1.02074975E-2,-1.8280644E-2,2.7324023E-2,5.308842E-3,-1.7786687E-2,1.1416363E-2,7.098257E-2,2.1025376E-2,-1.5871871E-2,-4.559178E-3,1.0290539E-1,1.7716457E-3,9.590531E-3,9.103272E-3,3.858842E-2],"categories":[],"categories_nodes":[],"categories_segments":[],"categories_sizes":[],"default_left":[0,0,0,0,0,0,0,0,0,0,0,0,0,0,1,0,0,0,0,0,0,0,0],"id":60,"left_children":[1,3,5,-1,-1,7,9,-1,-1,11,13,-1,-1,15,17,19,-1,-1,21,-1,-1,-1,-1],"loss_changes":[1.1302232E-2,5.737354E-3,1.0140319E-2,0E0,0E0,4.968229E-3,6.730185E-3,0E0,0E0,7.319119E-3,1.1067531E-2,0E0,0E0,9.596662E-3,1.36020295E-2,1.9056443E-3,0E0,0E0,2.2966824E-3,0E0,0E0,0E0,0E0],"parents":[2147483647,0,0,1,1,2,2,5,5,6,6,9,9,10,10,13,13,14,14,15,15,18,18],"right_children":[2,4,6,-1,-1,8,10,-1,-1,12,14,-1,-1,16,18,20,-1,-1,22,-1,-1,-1,-1],"split_conditions":[-3.5104167E-1,8.655799E-1,9.715406E-1,-2.5428874E-2,-1.8524978E-3,4.136654E0,2.4E1,5.7355454E-3,-1.02074975E-2,1.4489763E0,-1.6184896E-1,5.308842E-3,-1.7786687E-2,-2.1055365E-1,1.4489763E0,9.6262443E-1,-1.5871871E-2,-4.559178E-3,1E0,1.7716457E-3,9.590531E-3,9.103272E-3,3.858842E-2],"split_indices":[5,9,10,0,0,4,0,0,0,4,5,0,0,5,4,9,0,0,6,0,0,0,0],"split_type":[0,0,0,0,0,0,0,0,0,0,0,0,0,0,0,0,0,0,0,0,0,0,0],"sum_hessian":[3.008989E1,3.0898738E0,2.7000015E1,1.1555743E0,1.9342996E0,7.6475444E0,1.9352472E1,1.6242529E0,6.023291E0,3.2498026E0,1.6102669E1,2.0339143E0,1.2158881E0,1.2726914E1,3.3757546E0,1.1658415E1,1.0684994E0,1.0540761E0,2.3216786E0,5.5414767E0,6.116938E0,1.1780847E0,1.1435938E0],"tree_param":{"num_deleted":"0","num_feature":"14","num_nodes":"23","size_leaf_vector":"1"}},{"base_weights":[-7.726486E-8,-1.0027988E-2,3.3805676E-2,-2.504837E-2,-1.3468033E-3,-7.889187E-3,2.9853703E-2,1.7829062E-2,-2.5722641E-2,-8.306576E-3,5.839316E-3,-1.0678319E-2,2.5770828E-2,-1.0277492E-3,-2.7736716E-2,9.7432305E-5,1.229154E-2,-4.9972907E-3,9.9687055E-3],"categories":[],"categories_nodes":[],"categories_segments":[],"categories_sizes":[],"default_left":[0,0,1,0,0,0,0,1,0,0,0,0,0,0,0,0,0,0,0],"id":61,"left_children":[1,3,5,-1,7,9,-1,11,13,-1,-1,-1,15,17,-1,-1,-1,-1,-1],"loss_changes":[1.0860415E-2,1.5645394E-2,2.0863978E-2,0E0,1.126219E-2,3.469104E-3,0E0,6.656422E-3,1.7350318E-2,0E0,0E0,0E0,4.7661588E-3,5.232059E-3,0E0,0E0,0E0,0E0,0E0],"parents":[2147483647,0,0,1,1,2,2,4,4,5,5,7,7,8,8,12,12,13,13],"right_children":[2,4,6,-1,8,10,-1,12,14,-1,-1,-1,16,18,-1,-1,-1,-1,-1],"split_conditions":[8.656216E-1,-3.860026E-1,1.8451419E0,-2.504837E-2,5E-2,2.4E1,2.9853703E-2,4.168769E0,5E-2,-8.306576E-3,5.839316E-3,-1.0678319E-2,8.8137317E-1,9.6631074E-1,-2.7736716E-2,9.7432305E-5,1.229154E-2,-4.9972907E-3,9.9687055E-3],"split_indices":[2,5,4,0,3,0,0,4,11,0,0,0,9,10,0,0,0,0,0],"split_type":[0,0,0,0,0,0,0,0,0,0,0,0,0,0,0,0,0,0,0],"sum_hessian":[3.0036518E1,2.370746E1,6.3290567E0,1.5946324E0,2.211283E1,4.410353E0,1.9187034E0,1.2526847E1,9.585982E0,2.5513535E0,1.8589996E0,1.1705761E0,1.1356271E1,7.7379265E0,1.8480558E0,4.6289263E0,6.727344E0,5.6663547E0,2.0715716E0],"tree_param":{"num_deleted":"0","num_feature":"14",